{"learner":{"attributes":{"scikit_learn":"{\"_estimator_type\": \"classifier\"}"},"feature_names":["mode","voltage_charger","temperature_battery","voltage_load","current_load","temperature_mosfet","temperature_resistor","voltage_charger_derivative","temperature_battery_derivative","voltage_load_derivative","current_load_derivative","temperature_mosfet_derivative","temperature_resistor_derivative"],"feature_types":["int","float","float","float","float","float","float","float","float","float","float","float","float"],"gradient_booster":{"model":{"gbtree_model_param":{"num_parallel_tree":"1","num_trees":"50"},"iteration_indptr":[0,1,2,3,4,5,6,7,8,9,10,11,12,13,14,15,16,17,18,19,20,21,22,23,24,25,26,27,28,29,30,31,32,33,34,35,36,37,38,39,40,41,42,43,44,45,46,47,48,49,50],"tree_info":[0,0,0,0,0,0,0,0,0,0,0,0,0,0,0,0,0,0,0,0,0,0,0,0,0,0,0,0,0,0,0,0,0,0,0,0,0,0,0,0,0,0,0,0,0,0,0,0,0,0],"trees":[{"base_weights":[-2.6572798E-4,-5.6127775E-1,1.477883E0,-1.143424E0,1.9999991E-1,9.9678993E-1,1.8636979E0,-1.5361534E0,1.3672738E0,1.5102454E0,-9.043906E-3,1.6104815E0,1.9867325E0,-1.743654E0,1.3005918E0,5.620886E-1,1.785326E0,1.9211113E0,1.025961E0,-1.0943521E0,1.7405658E0,1.8808168E0,1.0914739E0,1.9400443E0,1.9999985E-1,1.6391226E0,-1.8904009E0,1.7242179E0,2.112016E-1,1.674542E0,-6.970714E-1,1.4298519E0,1.9499621E0,1.9559811E0,1.5634536E0,3.247542E-1,1.844488E0,1.6725228E0,-1.5363772E0,1.1367534E0,1.8875588E0,1.9844282E0,1.710113E0,5.906493E-1,1.9043196E0,1.9128529E0,1.9938334E0,1.8033451E-1,6.4726256E-2,1.9759713E-1,-1.9626813E-1,1.3280085E-1,1.8954435E-1,1.662097E-1,-1.23038605E-1,1.0507772E-1,1.8715736E-1,-1.65711E-1,1.7783026E-1,1.9335698E-1,8.8543735E-2,1.8353848E-1,1.991301E-1,1.993741E-1,1.838424E-1,1.9335447E-1,1.1047422E-1,-6.410368E-2,1.7708807E-1,1.3880567E-1,1.9688588E-1,1.4954785E-1,1.854629E-1,1.8445416E-1,-1.8548672E-1,1.53925E-1,-7.578141E-2,1.7870197E-1,1.9654837E-1,1.996478E-1,1.8903959E-1,1.0672795E-1,1.9419888E-1,1.8367426E-1,-5.4167934E-2,1.6748796E-1,1.9764663E-1,1.9978546E-1,1.893335E-1,1.9688717E-1,1.9998258E-1],"categories":[],"categories_nodes":[],"categories_segments":[],"categories_sizes":[],"default_left":[0,0,0,0,0,0,0,0,0,0,0,0,0,0,0,0,0,0,0,0,0,0,0,0,0,0,0,0,0,0,0,0,0,0,0,0,0,0,0,0,0,0,0,0,0,0,0,0,0,0,0,0,0,0,0,0,0,0,0,0,0,0,0,0,0,0,0,0,0,0,0,0,0,0,0,0,0,0,0,0,0,0,0,0,0,0,0,0,0,0,0],"id":0,"left_children":[1,3,5,7,-1,9,11,13,15,17,19,21,23,25,27,29,31,33,35,37,39,41,43,45,-1,47,49,51,53,55,57,59,61,63,65,67,69,71,73,75,77,79,81,83,85,87,89,-1,-1,-1,-1,-1,-1,-1,-1,-1,-1,-1,-1,-1,-1,-1,-1,-1,-1,-1,-1,-1,-1,-1,-1,-1,-1,-1,-1,-1,-1,-1,-1,-1,-1,-1,-1,-1,-1,-1,-1,-1,-1,-1,-1],"loss_changes":[1.3159735E7,1.71519E7,8.10372E5,9.241982E6,0E0,1.00348975E6,7.5481E4,4.770904E6,4.267615E5,2.55957E5,1.2469292E6,1.111615E5,1.006E3,3.749246E6,2.5495669E5,6.069384E5,4.883725E4,8.6765E3,3.38886E5,4.956633E5,2.2310875E4,9.210375E3,1.1046291E5,5.23875E2,0E0,5.1147812E4,2.02294E6,2.698325E4,3.2353625E5,2.8271188E4,4.8300606E5,7.24415E4,2.69775E3,2.811E3,1.04941875E4,4.4415344E5,1.54621875E4,1.7971406E3,3.76285E5,3.7535105E4,1.5805E3,3.63625E2,2.9328438E4,2.3690672E5,1.7090938E3,3.939375E2,1.41875E1,0E0,0E0,0E0,0E0,0E0,0E0,0E0,0E0,0E0,0E0,0E0,0E0,0E0,0E0,0E0,0E0,0E0,0E0,0E0,0E0,0E0,0E0,0E0,0E0,0E0,0E0,0E0,0E0,0E0,0E0,0E0,0E0,0E0,0E0,0E0,0E0,0E0,0E0,0E0,0E0,0E0,0E0,0E0,0E0],"parents":[2147483647,0,0,1,1,2,2,3,3,5,5,6,6,7,7,8,8,9,9,10,10,11,11,12,12,13,13,14,14,15,15,16,16,17,17,18,18,19,19,20,20,21,21,22,22,23,23,25,25,26,26,27,27,28,28,29,29,30,30,31,31,32,32,33,33,34,34,35,35,36,36,37,37,38,38,39,39,40,40,41,41,42,42,43,43,44,44,45,45,46,46],"right_children":[2,4,6,8,-1,10,12,14,16,18,20,22,24,26,28,30,32,34,36,38,40,42,44,46,-1,48,50,52,54,56,58,60,62,64,66,68,70,72,74,76,78,80,82,84,86,88,90,-1,-1,-1,-1,-1,-1,-1,-1,-1,-1,-1,-1,-1,-1,-1,-1,-1,-1,-1,-1,-1,-1,-1,-1,-1,-1,-1,-1,-1,-1,-1,-1,-1,-1,-1,-1,-1,-1,-1,-1,-1,-1,-1,-1],"split_conditions":[4.9981E1,8.601E0,6.3119E1,5.8E-2,1.9999991E-1,0E0,6.918E1,4E-3,1.05E-1,-5E-3,3E-3,0E0,7.1652E1,-4E-3,6.597E0,-4E-3,1.34E-1,-6E-3,1.13E-1,-1.3E-1,5E-3,-4E-3,3E-3,6.2E-2,1.9999985E-1,-5E-3,5.461E0,8E-3,-4.1E-2,6.871E0,3E-3,-5E-3,1.49E-1,5.915E0,5.801E0,3E-3,1.34E-1,5.9067E1,5.616E0,-3.4E-2,9E-3,-5E-3,8.5E-2,-1.06E-1,5E-3,-1.06E-1,8E-2,1.8033451E-1,6.4726256E-2,1.9759713E-1,-1.9626813E-1,1.3280085E-1,1.8954435E-1,1.662097E-1,-1.23038605E-1,1.0507772E-1,1.8715736E-1,-1.65711E-1,1.7783026E-1,1.9335698E-1,8.8543735E-2,1.8353848E-1,1.991301E-1,1.993741E-1,1.838424E-1,1.9335447E-1,1.1047422E-1,-6.410368E-2,1.7708807E-1,1.3880567E-1,1.9688588E-1,1.4954785E-1,1.854629E-1,1.8445416E-1,-1.8548672E-1,1.53925E-1,-7.578141E-2,1.7870197E-1,1.9654837E-1,1.996478E-1,1.8903959E-1,1.0672795E-1,1.9419888E-1,1.8367426E-1,-5.4167934E-2,1.6748796E-1,1.9764663E-1,1.9978546E-1,1.893335E-1,1.9688717E-1,1.9998258E-1],"split_indices":[2,1,2,8,0,0,2,7,8,7,7,0,2,7,1,7,8,7,8,8,7,7,7,8,0,7,1,7,8,1,7,7,8,1,1,7,8,2,1,8,7,7,8,8,7,8,8,0,0,0,0,0,0,0,0,0,0,0,0,0,0,0,0,0,0,0,0,0,0,0,0,0,0,0,0,0,0,0,0,0,0,0,0,0,0,0,0,0,0,0,0],"split_type":[0,0,0,0,0,0,0,0,0,0,0,0,0,0,0,0,0,0,0,0,0,0,0,0,0,0,0,0,0,0,0,0,0,0,0,0,0,0,0,0,0,0,0,0,0,0,0,0,0,0,0,0,0,0,0,0,0,0,0,0,0,0,0,0,0,0,0,0,0,0,0,0,0,0,0,0,0,0,0,0,0,0,0,0,0,0,0,0,0,0,0],"sum_hessian":[1.5869263E7,1.1503327E7,4.3659365E6,9.372968E6,2.1303582E6,1.9430486E6,2.4228878E6,8.1051425E6,1.2678255E6,1.2863801E6,6.5666856E5,7.922925E5,1.6305952E6,7.5526835E6,5.5245894E5,4.3329134E5,8.345342E5,6.959417E5,5.904384E5,4.0527253E5,2.5139605E5,5.2094522E5,2.713473E5,3.6083197E5,1.2697634E6,3.1401703E5,7.2386665E6,3.9777675E5,1.5468217E5,2.300471E5,2.0324427E5,2.641672E5,5.70367E5,6.341142E5,6.182748E4,3.1801025E5,2.7242816E5,5.5825785E4,3.4944675E5,4.9220164E4,2.0217589E5,3.2417294E5,1.9677228E5,1.6789972E5,1.0344758E5,2.3969722E5,1.2113474E5,2.6940997E5,4.4607066E4,1.3284036E5,7.1058265E6,1.2003324E5,2.777435E5,7.709213E4,7.759004E4,5.5224184E4,1.748229E5,1.4644716E5,5.6797113E4,1.3721075E5,1.2695642E5,1.5123662E5,4.191304E5,4.7993997E5,1.5417423E5,3.4217438E4,2.7610041E4,1.9067147E5,1.2733877E5,5.8339367E4,2.1408878E5,2.8310969E4,2.7514814E4,3.0084213E4,3.1936253E5,4.059585E4,8.62431E3,8.82888E4,1.13887086E5,2.8733225E5,3.6840676E4,5.2163605E4,1.4460867E5,7.9934086E4,8.796564E4,2.4752898E4,7.869468E4,4.474204E4,1.9495519E5,2.351446E4,9.762028E4],"tree_param":{"num_deleted":"0","num_feature":"13","num_nodes":"91","size_leaf_vector":"1"}},{"base_weights":[7.6867506E-4,-5.153503E-1,1.3269863E0,-1.0500265E0,1.8187301E-1,8.5627973E-1,1.669391E0,1.4449121E0,-1.3740029E0,1.6900916E0,3.3144647E-1,1.4333668E0,1.8065014E0,1.7087626E0,7.032283E-1,-1.629619E0,1.1601542E0,1.774051E0,1.2380931E0,-3.8890758E-1,1.606347E0,1.6978148E0,9.096762E-1,1.7634089E0,1.8187295E-1,1.7327955E0,1.0304234E0,2.0892528E-1,1.5158663E0,-1.7311527E0,1.0021126E0,5.122606E-1,1.6842586E0,1.8151531E0,1.6548483E0,1.8227397E0,6.499282E-1,-9.0858114E-1,1.0954281E0,1.1522173E0,1.7286233E0,1.8041266E0,1.5261366E0,4.3851283E-1,1.7166412E0,1.7307634E0,1.8021083E0,1.777359E-1,1.5033236E-1,1.7632826E-1,-1.3803531E-1,1.4049622E-1,-4.4689786E-2,1.0064577E-1,1.704319E-1,1.8085708E-1,-1.7841606E-1,-1.5741184E-2,1.3772853E-1,1.7655198E-2,1.7204107E-1,1.4991747E-1,1.8078665E-1,1.8188033E-1,1.7664999E-1,1.7579809E-1,1.4036442E-1,1.8857035E-1,1.5494727E-1,-7.716683E-3,1.2997922E-1,1.3247393E-1,-1.169706E-1,8.408954E-2,1.6142128E-1,7.222376E-2,1.5270084E-1,1.5859734E-1,1.7804979E-1,1.8153794E-1,1.7163734E-1,1.4126156E-1,1.7858893E-1,1.5847509E-1,1.0758238E-2,1.46781E-1,1.7920771E-1,1.7124112E-1,1.8139681E-1,1.8219273E-1,1.7823316E-1],"categories":[],"categories_nodes":[],"categories_segments":[],"categories_sizes":[],"default_left":[0,0,0,0,0,0,0,0,0,0,0,0,0,0,1,1,0,1,1,1,0,0,0,1,0,0,0,0,0,0,0,1,0,1,0,1,0,0,0,0,0,0,0,0,0,0,0,0,0,0,0,0,0,0,0,0,0,0,0,0,0,0,0,0,0,0,0,0,0,0,0,0,0,0,0,0,0,0,0,0,0,0,0,0,0,0,0,0,0,0,0],"id":1,"left_children":[1,3,5,7,-1,9,11,13,15,17,19,21,23,25,27,29,31,33,35,37,39,41,43,45,-1,47,49,51,53,55,57,59,61,63,65,67,69,71,73,75,77,79,81,83,85,87,89,-1,-1,-1,-1,-1,-1,-1,-1,-1,-1,-1,-1,-1,-1,-1,-1,-1,-1,-1,-1,-1,-1,-1,-1,-1,-1,-1,-1,-1,-1,-1,-1,-1,-1,-1,-1,-1,-1,-1,-1,-1,-1,-1,-1],"loss_changes":[1.0768169E7,1.4132848E7,7.10309E5,7.447635E6,0E0,8.121521E5,8.256E4,2.0722925E5,5.282567E6,2.7204125E4,1.0460041E6,1.29829875E5,8.47E2,1.2732E4,1.1161684E5,1.97943E6,2.5372456E5,2.959125E3,3.8618375E4,5.613746E5,2.2831875E4,1.136675E4,1.195995E5,4.4775E2,0E0,7.71125E3,4.7225445E4,1.3552452E5,1.0087219E4,1.338316E6,1.1970959E5,1.3552453E5,9.4475E3,7.6625E1,4.0139688E3,9.661719E2,2.6454977E4,3.1435716E5,2.491886E4,1.40569375E4,2.3945E3,3.76875E2,7.0223125E3,7.53355E4,2.1740312E3,2.92375E2,6.06875E1,0E0,0E0,0E0,0E0,0E0,0E0,0E0,0E0,0E0,0E0,0E0,0E0,0E0,0E0,0E0,0E0,0E0,0E0,0E0,0E0,0E0,0E0,0E0,0E0,0E0,0E0,0E0,0E0,0E0,0E0,0E0,0E0,0E0,0E0,0E0,0E0,0E0,0E0,0E0,0E0,0E0,0E0,0E0,0E0],"parents":[2147483647,0,0,1,1,2,2,3,3,5,5,6,6,7,7,8,8,9,9,10,10,11,11,12,12,13,13,14,14,15,15,16,16,17,17,18,18,19,19,20,20,21,21,22,22,23,23,25,25,26,26,27,27,28,28,29,29,30,30,31,31,32,32,33,33,34,34,35,35,36,36,37,37,38,38,39,39,40,40,41,41,42,42,43,43,44,44,45,45,46,46],"right_children":[2,4,6,8,-1,10,12,14,16,18,20,22,24,26,28,30,32,34,36,38,40,42,44,46,-1,48,50,52,54,56,58,60,62,64,66,68,70,72,74,76,78,80,82,84,86,88,90,-1,-1,-1,-1,-1,-1,-1,-1,-1,-1,-1,-1,-1,-1,-1,-1,-1,-1,-1,-1,-1,-1,-1,-1,-1,-1,-1,-1,-1,-1,-1,-1,-1,-1,-1,-1,-1,-1,-1,-1,-1,-1,-1,-1],"split_conditions":[4.9469E1,8.601E0,6.1993E1,-3E-3,1.8187301E-1,-4E-3,6.918E1,-5E-3,3E-3,-6E-3,3E-3,7.661E0,7.1652E1,8.365E0,1.3930423E1,1.0001001E1,7E-3,5.986E0,5.864E0,1.371257E1,5E-3,-4E-3,3E-3,9.86125E0,1.8187295E-1,-6E-3,-1.3E-2,2.7995E1,3E-2,5.461E0,1.4188678E1,1.0128363E1,1E-2,5.92E0,-8E-3,5.765E0,1.3930423E1,5.683E0,1.6575762E1,6.33E0,7E-3,-5E-3,1E-3,5.754E0,5E-3,3E-3,-4E-3,1.777359E-1,1.5033236E-1,1.7632826E-1,-1.3803531E-1,1.4049622E-1,-4.4689786E-2,1.0064577E-1,1.704319E-1,1.8085708E-1,-1.7841606E-1,-1.5741184E-2,1.3772853E-1,1.7655198E-2,1.7204107E-1,1.4991747E-1,1.8078665E-1,1.8188033E-1,1.7664999E-1,1.7579809E-1,1.4036442E-1,1.8857035E-1,1.5494727E-1,-7.716683E-3,1.2997922E-1,1.3247393E-1,-1.169706E-1,8.408954E-2,1.6142128E-1,7.222376E-2,1.5270084E-1,1.5859734E-1,1.7804979E-1,1.8153794E-1,1.7163734E-1,1.4126156E-1,1.7858893E-1,1.5847509E-1,1.0758238E-2,1.46781E-1,1.7920771E-1,1.7124112E-1,1.8139681E-1,1.8219273E-1,1.7823316E-1],"split_indices":[2,1,2,7,0,7,2,7,7,7,7,3,2,1,4,4,7,3,3,4,7,7,7,4,0,7,7,2,11,1,4,4,7,3,7,3,4,1,4,1,7,7,7,1,7,7,7,0,0,0,0,0,0,0,0,0,0,0,0,0,0,0,0,0,0,0,0,0,0,0,0,0,0,0,0,0,0,0,0,0,0,0,0,0,0,0,0,0,0,0,0],"split_type":[0,0,0,0,0,0,0,0,0,0,0,0,0,0,0,0,0,0,0,0,0,0,0,0,0,0,0,0,0,0,0,0,0,0,0,0,0,0,0,0,0,0,0,0,0,0,0,0,0,0,0,0,0,0,0,0,0,0,0,0,0,0,0,0,0,0,0,0,0,0,0,0,0,0,0,0,0,0,0,0,0,0,0,0,0,0,0,0,0,0,0],"sum_hessian":[1.5731755E7,1.1324603E7,4.4071515E6,9.213934E6,2.1106688E6,1.8558721E6,2.5512792E6,1.0589521E6,8.1549825E6,7.1690706E5,1.1389651E6,9.374859E5,1.6137934E6,7.810839E5,2.7786828E5,7.4077735E6,7.47209E5,6.04599E5,1.1230805E5,7.277608E5,4.112043E5,6.229251E5,3.1456078E5,3.567467E5,1.2570466E6,7.5435625E5,2.6727596E4,1.7277547E5,1.0509282E5,7.132594E6,2.7517928E5,3.3414434E5,4.1306466E5,4.495693E5,1.5502972E5,5.6321426E4,5.5986625E4,5.390404E5,1.8872042E5,8.723338E4,3.239709E5,3.8469394E5,2.3823116E5,1.9860352E5,1.1595727E5,1.9353395E5,1.6321272E5,6.3167775E5,1.2267855E5,2.0496938E4,6.2306567E3,6.1186805E4,1.11588664E5,2.83813E4,7.6711516E4,1.052353E5,7.0273585E6,6.727057E4,2.079087E5,2.6148631E5,7.265805E4,1.654067E5,2.4765794E5,4.1816188E5,3.1407414E4,1.0990281E5,4.5126902E4,4.5769688E4,1.0551736E4,2.6423635E4,2.9562988E4,5.642768E4,4.8261272E5,1.2660599E5,6.211442E4,4.062696E4,4.6606426E4,8.640286E4,2.3756806E5,3.4095316E5,4.374078E4,1.6578417E5,7.244697E4,4.4492355E4,1.5411116E5,2.6980473E4,8.89768E4,1.5857834E5,3.4955613E4,8.147405E4,8.173868E4],"tree_param":{"num_deleted":"0","num_feature":"13","num_nodes":"91","size_leaf_vector":"1"}},{"base_weights":[2.2294467E-4,-4.872293E-1,1.1931025E0,-9.907619E-1,1.6825809E-1,7.8224444E-1,1.5634391E0,-1.3181297E0,1.1576173E0,1.560572E0,3.0891827E-1,1.3450705E0,1.670706E0,-1.4721862E0,1.2548125E0,5.43057E-1,1.565458E0,1.6403629E0,1.1654932E0,-3.1245807E-1,1.4824061E0,1.5768757E0,9.061293E-1,1.6291173E0,1.6825806E-1,1.6436448E0,-1.578092E0,1.5230484E0,5.7963437E-1,1.412076E0,-4.7999135E-1,1.2638912E0,1.668279E0,1.6788552E0,1.5229987E0,1.6658057E0,6.2173605E-1,-9.819216E-1,1.5568795E0,1.0754852E0,1.5983971E0,1.668431E0,1.4268178E0,1.6534194E0,4.7986865E-1,1.6055743E0,1.6809177E0,1.716591E-1,5.475091E-2,1.3965425E-1,-1.6436861E-1,1.3167442E-1,1.636261E-1,1.5967812E-1,-4.724474E-2,7.8916065E-2,1.5867509E-1,-1.341397E-1,1.5413754E-1,7.739136E-2,1.5901963E-1,1.5605097E-1,1.7070971E-1,1.683417E-1,1.6282256E-1,1.6200554E-1,1.2901539E-1,1.7297384E-1,1.4086422E-1,-1.0165042E-1,1.5422685E-1,1.6074555E-1,-1.24864794E-1,7.64127E-2,1.7142767E-1,8.362091E-2,1.6549008E-1,1.4669605E-1,1.64683E-1,1.6794322E-1,1.5822087E-1,8.13461E-2,1.6493961E-1,1.7887132E-1,1.3793628E-1,-5.4176074E-2,1.5743239E-1,1.6867445E-1,1.5878211E-1,1.6617922E-1,1.6838008E-1],"categories":[],"categories_nodes":[],"categories_segments":[],"categories_sizes":[],"default_left":[0,0,0,0,0,0,0,0,0,0,0,0,0,0,0,0,0,1,1,0,0,0,0,0,0,0,0,0,0,0,0,0,0,1,0,1,0,0,0,0,0,0,0,0,0,0,0,0,0,0,0,0,0,0,0,0,0,0,0,0,0,0,0,0,0,0,0,0,0,0,0,0,0,0,0,0,0,0,0,0,0,0,0,0,0,0,0,0,0,0,0],"id":2,"left_children":[1,3,5,7,-1,9,11,13,15,17,19,21,23,25,27,29,31,33,35,37,39,41,43,45,-1,47,49,51,53,55,57,59,61,63,65,67,69,71,73,75,77,79,81,83,85,87,89,-1,-1,-1,-1,-1,-1,-1,-1,-1,-1,-1,-1,-1,-1,-1,-1,-1,-1,-1,-1,-1,-1,-1,-1,-1,-1,-1,-1,-1,-1,-1,-1,-1,-1,-1,-1,-1,-1,-1,-1,-1,-1,-1,-1],"loss_changes":[8.938571E6,1.1923136E7,6.78523E5,6.229526E6,0E0,7.7882E5,5.49345E4,3.046655E6,2.9355688E5,2.519975E4,9.585761E5,7.8608E4,7.74E2,2.393054E6,7.863919E4,4.1536988E5,2.1827375E4,3.002125E3,3.6543844E4,1.0756122E6,2.1478938E4,6.94375E3,8.505009E4,4.23375E2,0E0,1.9060438E4,1.368488E6,7.2560625E3,1.3211878E5,2.7485781E4,3.7364412E5,2.8619094E4,2.19375E3,1.12875E2,3.7104375E3,1.1477812E3,9.707926E4,4.3708212E5,2.8278375E4,1.3994961E4,2.2521875E3,2.9525E2,2.6154406E4,3.5934062E3,1.9010731E5,3.434375E2,3.25E0,0E0,0E0,0E0,0E0,0E0,0E0,0E0,0E0,0E0,0E0,0E0,0E0,0E0,0E0,0E0,0E0,0E0,0E0,0E0,0E0,0E0,0E0,0E0,0E0,0E0,0E0,0E0,0E0,0E0,0E0,0E0,0E0,0E0,0E0,0E0,0E0,0E0,0E0,0E0,0E0,0E0,0E0,0E0,0E0],"parents":[2147483647,0,0,1,1,2,2,3,3,5,5,6,6,7,7,8,8,9,9,10,10,11,11,12,12,13,13,14,14,15,15,16,16,17,17,18,18,19,19,20,20,21,21,22,22,23,23,25,25,26,26,27,27,28,28,29,29,30,30,31,31,32,32,33,33,34,34,35,35,36,36,37,37,38,38,39,39,40,40,41,41,42,42,43,43,44,44,45,45,46,46],"right_children":[2,4,6,8,-1,10,12,14,16,18,20,22,24,26,28,30,32,34,36,38,40,42,44,46,-1,48,50,52,54,56,58,60,62,64,66,68,70,72,74,76,78,80,82,84,86,88,90,-1,-1,-1,-1,-1,-1,-1,-1,-1,-1,-1,-1,-1,-1,-1,-1,-1,-1,-1,-1,-1,-1,-1,-1,-1,-1,-1,-1,-1,-1,-1,-1,-1,-1,-1,-1,-1,-1,-1,-1,-1,-1,-1,-1],"split_conditions":[4.8473E1,8.601E0,6.3119E1,5.8E-2,1.6825809E-1,-4E-3,6.918E1,5E-3,1.13E-1,-6E-3,3E-3,0E0,7.1652E1,5.616E0,6.531E0,-4E-3,1.34E-1,6.003E0,5.888E0,1.13E-1,5E-3,-4E-3,-1.06E-1,7E-2,1.6825806E-1,5.461E0,-5E-3,9E-3,-3.9E-2,6.871E0,3E-3,6.882E0,1.49E-1,5.92E0,-8E-3,5.781E0,9.8E-2,-1.3E-1,1.34E-1,8.5E-2,7E-3,-5E-3,8.5E-2,-1.3E-1,3E-3,-1.06E-1,8E-2,1.716591E-1,5.475091E-2,1.3965425E-1,-1.6436861E-1,1.3167442E-1,1.636261E-1,1.5967812E-1,-4.724474E-2,7.8916065E-2,1.5867509E-1,-1.341397E-1,1.5413754E-1,7.739136E-2,1.5901963E-1,1.5605097E-1,1.7070971E-1,1.683417E-1,1.6282256E-1,1.6200554E-1,1.2901539E-1,1.7297384E-1,1.4086422E-1,-1.0165042E-1,1.5422685E-1,1.6074555E-1,-1.24864794E-1,7.64127E-2,1.7142767E-1,8.362091E-2,1.6549008E-1,1.4669605E-1,1.64683E-1,1.6794322E-1,1.5822087E-1,8.13461E-2,1.6493961E-1,1.7887132E-1,1.3793628E-1,-5.4176074E-2,1.5743239E-1,1.6867445E-1,1.5878211E-1,1.6617922E-1,1.6838008E-1],"split_indices":[2,1,2,8,0,7,2,7,8,7,7,0,2,1,1,7,8,3,3,8,7,7,8,8,0,1,7,7,8,1,7,3,8,3,7,3,8,8,8,8,7,7,8,8,7,8,8,0,0,0,0,0,0,0,0,0,0,0,0,0,0,0,0,0,0,0,0,0,0,0,0,0,0,0,0,0,0,0,0,0,0,0,0,0,0,0,0,0,0,0,0],"split_type":[0,0,0,0,0,0,0,0,0,0,0,0,0,0,0,0,0,0,0,0,0,0,0,0,0,0,0,0,0,0,0,0,0,0,0,0,0,0,0,0,0,0,0,0,0,0,0,0,0,0,0,0,0,0,0,0,0,0,0,0,0,0,0,0,0,0,0,0,0,0,0,0,0,0,0,0,0,0,0,0,0,0,0,0,0,0,0,0,0,0,0],"sum_hessian":[1.5372322E7,1.0912921E7,4.4594005E6,8.857438E6,2.055483E6,2.1140448E6,2.3453555E6,7.6862205E6,1.1712178E6,7.994476E5,1.3145972E6,7.7258325E5,1.5727722E6,7.252003E6,4.3421784E5,4.6720544E5,7.0401225E5,6.651164E5,1.3433122E5,8.594883E5,4.5510894E5,5.0558225E5,2.67001E5,3.493523E5,1.2234199E6,2.3838931E5,7.0136135E6,3.107581E5,1.23459766E5,2.5261964E5,2.145858E5,1.7900778E5,5.250045E5,5.0084056E5,1.6427584E5,6.995936E4,6.437186E4,6.3284775E5,2.2664052E5,1.0095339E5,3.5415556E5,3.139938E5,1.9158842E5,9.697986E4,1.7002114E5,2.4021022E5,1.0914208E5,2.2351423E5,1.4875082E4,1.5132114E5,6.8622925E6,1.1011366E5,2.0064442E5,6.2771812E4,6.0687957E4,5.5325742E4,1.9729389E5,1.5046533E5,6.4120477E4,7.1558875E4,1.07448914E5,1.3903769E5,3.8596678E5,4.5941497E5,4.1425598E4,1.1594187E5,4.8333977E4,5.6025336E4,1.3934025E4,2.315809E4,4.121377E4,5.9100047E4,5.7374775E5,3.7545133E4,1.8909538E5,7.144983E4,2.9503564E4,9.537073E4,2.5878483E5,2.784482E5,3.554562E4,5.1014074E4,1.4057434E5,6.49235E4,3.2056355E4,8.79365E4,8.208464E4,4.3092246E4,1.9711798E5,1.4372968E4,9.476911E4],"tree_param":{"num_deleted":"0","num_feature":"13","num_nodes":"91","size_leaf_vector":"1"}},{"base_weights":[-1.6871371E-4,-4.5583677E-1,1.1101073E0,-9.256525E-1,1.5768734E-1,6.705055E-1,1.4189484E0,-1.2317324E0,1.0735836E0,1.4910039E0,2.5158086E-1,1.2033358E0,1.5648156E0,-1.3902999E0,9.842366E-1,3.3332416E-1,1.3744042E0,1.5492377E0,1.2342176E0,-3.2755077E-1,1.3707392E0,1.4588313E0,6.963851E-1,1.5226128E0,1.5768729E-1,1.524315E0,-1.4874718E0,1.3801049E0,1.8341656E-1,1.2736437E0,-6.998005E-1,1.0699908E0,1.5561097E0,1.5751878E0,1.4572234E0,1.5219991E0,7.848188E-1,-9.317597E-1,1.5069578E0,9.6191585E-1,1.4870186E0,1.5625302E0,1.296033E0,1.5108998E0,2.5316185E-1,1.4900287E0,1.5615139E0,1.597415E-1,5.123679E-2,1.2944977E-1,-1.549766E-1,1.1507293E-1,1.5301973E-1,1.5720257E-1,-9.1572165E-2,5.003808E-2,1.4514902E-1,-1.3847844E-1,1.3585982E-1,1.5303543E-1,5.7403553E-2,1.4495447E-1,1.5946724E-1,1.5783407E-1,1.5356039E-1,1.3376842E-1,1.583888E-1,1.5645762E-1,1.3220468E-1,-5.711884E-2,1.4692238E-1,1.3151897E-1,-1.23872936E-1,7.4892834E-2,1.5910393E-1,4.8632905E-2,1.3279466E-1,1.3520865E-1,1.537361E-1,1.5748267E-1,1.4668785E-1,6.361716E-2,1.5431638E-1,1.6560243E-1,1.1893751E-1,-6.8841524E-2,1.4353348E-1,1.579777E-1,1.4641011E-1,1.5811066E-1,1.5420192E-1],"categories":[],"categories_nodes":[],"categories_segments":[],"categories_sizes":[],"default_left":[0,0,0,0,0,0,0,0,0,0,0,0,0,0,0,0,0,0,1,0,0,0,0,1,0,0,0,0,0,0,0,0,0,1,0,1,0,0,0,0,0,0,0,0,0,0,0,0,0,0,0,0,0,0,0,0,0,0,0,0,0,0,0,0,0,0,0,0,0,0,0,0,0,0,0,0,0,0,0,0,0,0,0,0,0,0,0,0,0,0,0],"id":3,"left_children":[1,3,5,7,-1,9,11,13,15,17,19,21,23,25,27,29,31,33,35,37,39,41,43,45,-1,47,49,51,53,55,57,59,61,63,65,67,69,71,73,75,77,79,81,83,85,87,89,-1,-1,-1,-1,-1,-1,-1,-1,-1,-1,-1,-1,-1,-1,-1,-1,-1,-1,-1,-1,-1,-1,-1,-1,-1,-1,-1,-1,-1,-1,-1,-1,-1,-1,-1,-1,-1,-1,-1,-1,-1,-1,-1,-1],"loss_changes":[7.513643E6,1.0056082E7,5.86728E5,5.233853E6,0E0,6.1296225E5,7.983E4,2.606361E6,2.52882E5,9.011375E3,7.651525E5,1.3266775E5,7.685E2,1.960485E6,1.570281E5,3.187732E5,4.4662375E4,1.17075E3,1.4409594E4,8.623164E5,1.9136062E4,1.149525E4,1.2391272E5,4.2425E2,0E0,1.6520062E4,1.160912E6,1.1409875E4,2.5009198E5,2.3623312E4,2.2045416E5,6.891194E4,2.0755E3,4.55625E1,1.6345781E3,5.762344E2,4.0372586E4,4.0365306E5,1.22836875E4,1.5518367E4,2.126875E3,4.870625E2,4.3215062E4,5.6419688E3,2.4742616E5,4.2378125E2,5.615625E1,0E0,0E0,0E0,0E0,0E0,0E0,0E0,0E0,0E0,0E0,0E0,0E0,0E0,0E0,0E0,0E0,0E0,0E0,0E0,0E0,0E0,0E0,0E0,0E0,0E0,0E0,0E0,0E0,0E0,0E0,0E0,0E0,0E0,0E0,0E0,0E0,0E0,0E0,0E0,0E0,0E0,0E0,0E0,0E0],"parents":[2147483647,0,0,1,1,2,2,3,3,5,5,6,6,7,7,8,8,9,9,10,10,11,11,12,12,13,13,14,14,15,15,16,16,17,17,18,18,19,19,20,20,21,21,22,22,23,23,25,25,26,26,27,27,28,28,29,29,30,30,31,31,32,32,33,33,34,34,35,35,36,36,37,37,38,38,39,39,40,40,41,41,42,42,43,43,44,44,45,45,46,46],"right_children":[2,4,6,8,-1,10,12,14,16,18,20,22,24,26,28,30,32,34,36,38,40,42,44,46,-1,48,50,52,54,56,58,60,62,64,66,68,70,72,74,76,78,80,82,84,86,88,90,-1,-1,-1,-1,-1,-1,-1,-1,-1,-1,-1,-1,-1,-1,-1,-1,-1,-1,-1,-1,-1,-1,-1,-1,-1,-1,-1,-1,-1,-1,-1,-1,-1,-1,-1,-1,-1,-1,-1,-1,-1,-1,-1,-1],"split_conditions":[4.8473E1,8.601E0,6.0944E1,5.8E-2,1.5768734E-1,-5E-3,6.918E1,4E-3,9.8E-2,-7E-3,3E-3,7.661E0,7.1652E1,5.616E0,6.564E0,-4E-3,1.34E-1,5.957E0,5.94E0,1.22E-1,5E-3,-4E-3,-1.06E-1,-4E-2,1.5768729E-1,5.461E0,-5E-3,9E-3,-4.5E-2,6.871E0,3E-3,-5E-3,1.49E-1,5.959E0,8.5E-2,5.839E0,9.1E-2,5.683E0,1.34E-1,6.381E0,7E-3,-5E-3,8.5E-2,-1.3E-1,3E-3,-1.06E-1,-4E-3,1.597415E-1,5.123679E-2,1.2944977E-1,-1.549766E-1,1.1507293E-1,1.5301973E-1,1.5720257E-1,-9.1572165E-2,5.003808E-2,1.4514902E-1,-1.3847844E-1,1.3585982E-1,1.5303543E-1,5.7403553E-2,1.4495447E-1,1.5946724E-1,1.5783407E-1,1.5356039E-1,1.3376842E-1,1.583888E-1,1.5645762E-1,1.3220468E-1,-5.711884E-2,1.4692238E-1,1.3151897E-1,-1.23872936E-1,7.4892834E-2,1.5910393E-1,4.8632905E-2,1.3279466E-1,1.3520865E-1,1.537361E-1,1.5748267E-1,1.4668785E-1,6.361716E-2,1.5431638E-1,1.6560243E-1,1.1893751E-1,-6.8841524E-2,1.4353348E-1,1.579777E-1,1.4641011E-1,1.5811066E-1,1.5420192E-1],"split_indices":[2,1,2,8,0,7,2,7,8,7,7,3,2,1,1,7,8,1,3,8,7,7,8,12,0,1,7,7,8,1,7,7,8,3,8,3,8,1,8,1,7,7,8,8,7,8,7,0,0,0,0,0,0,0,0,0,0,0,0,0,0,0,0,0,0,0,0,0,0,0,0,0,0,0,0,0,0,0,0,0,0,0,0,0,0,0,0,0,0,0,0],"split_type":[0,0,0,0,0,0,0,0,0,0,0,0,0,0,0,0,0,0,0,0,0,0,0,0,0,0,0,0,0,0,0,0,0,0,0,0,0,0,0,0,0,0,0,0,0,0,0,0,0,0,0,0,0,0,0,0,0,0,0,0,0,0,0,0,0,0,0,0,0,0,0,0,0,0,0,0,0,0,0,0,0,0,0,0,0,0,0,0,0,0,0],"sum_hessian":[1.4851522E7,1.0529935E7,4.321587E6,8.553081E6,1.9768539E6,1.783282E6,2.538305E6,7.4174775E6,1.1356035E6,6.02748E5,1.180534E6,1.0242802E6,1.5140248E6,6.922151E6,4.9532625E5,3.2813384E5,8.074696E5,4.9132144E5,1.1142657E5,7.779621E5,4.0257188E5,6.810428E5,3.4323738E5,3.3646062E5,1.1775641E6,2.2333492E5,6.698816E6,3.3147025E5,1.6385598E5,1.7178238E5,1.5635147E5,3.0182503E5,5.056446E5,3.8322684E5,1.0809459E5,6.792625E4,4.350032E4,5.8521706E5,1.9274508E5,8.9148016E4,3.1342384E5,4.1603153E5,2.6501128E5,1.2095502E5,2.2228236E5,1.8311806E5,1.5334255E5,2.0828823E5,1.5046688E4,1.4671505E5,6.552101E6,1.311111E5,2.0035917E5,7.239477E4,9.146122E4,3.2122025E4,1.3966034E5,1.1731296E5,3.9038516E4,1.5652802E5,1.4529702E5,1.3436788E5,3.7127672E5,3.5491888E5,2.8307951E4,5.5617406E4,5.247719E4,5.599591E4,1.1930339E4,1.4591145E4,2.8909176E4,7.0340086E4,5.1487697E5,1.9245861E4,1.7349922E5,3.877268E4,5.0375332E4,8.51704E4,2.2825347E5,3.6862706E5,4.7404457E4,7.220935E4,1.9280194E5,8.333602E4,3.7619004E4,1.2373241E5,9.854995E4,4.1030625E4,1.4208744E5,7.643875E4,7.69038E4],"tree_param":{"num_deleted":"0","num_feature":"13","num_nodes":"91","size_leaf_vector":"1"}},{"base_weights":[4.4865021E-4,-4.0907758E-1,1.0939184E0,-8.3235216E-1,1.4927173E-1,7.603573E-1,1.4033694E0,4.5277205E-1,-1.2015926E0,1.1387432E0,1.0072153E-2,1.2074358E0,1.4802562E0,-7.194193E-2,1.2891362E0,-1.2988955E-1,-1.463526E0,1.4567306E0,8.3580524E-1,-2.7518827E-1,1.4515095E0,8.6630994E-1,1.4018891E0,1.4367447E0,1.4927168E-1,8.307065E-1,-4.6226922E-1,9.656205E-1,1.4136577E0,1.4708804E0,-3.4359637E-1,1.5128136E-1,-1.4761378E0,1.4909601E0,1.28503E0,5.172458E-1,1.1065402E0,9.4238234E-1,-6.709063E-1,1.5244443E0,1.3799093E0,1.5368948E0,6.425807E-1,1.4905907E0,1.3095795E0,1.403674E0,1.4761386E0,1.407549E-1,3.0111426E-2,-9.3727306E-2,7.568107E-2,6.48798E-3,1.2138315E-1,1.2976435E-1,1.4687827E-1,1.525348E-1,6.607944E-2,-1.3968502E-1,3.7395105E-2,-1.4049952E-1,2.3246662E-1,-1.485555E-1,4.397424E-2,1.5081984E-1,1.4250353E-1,1.3376525E-1,1.1905741E-1,6.6058114E-2,-3.136617E-2,1.0534718E-1,1.310591E-1,1.5450883E-1,5.318628E-2,-9.4853394E-2,-1.80317E-2,1.9980577E-1,1.5194814E-1,1.3639648E-1,1.5927279E-1,2.0079537E-1,1.3837178E-1,4.6587687E-2,8.962242E-2,1.4995359E-1,1.4361618E-1,1.2858254E-1,1.4200625E-1,1.4681123E-1,1.3930291E-1,1.4948857E-1,1.4621548E-1],"categories":[],"categories_nodes":[],"categories_segments":[],"categories_sizes":[],"default_left":[0,0,0,0,0,0,0,0,0,0,0,1,0,0,0,0,0,0,0,0,0,0,0,1,0,0,0,0,0,0,0,0,0,0,0,0,0,0,0,0,0,0,0,0,0,0,0,0,0,0,0,0,0,0,0,0,0,0,0,0,0,0,0,0,0,0,0,0,0,0,0,0,0,0,0,0,0,0,0,0,0,0,0,0,0,0,0,0,0,0,0],"id":4,"left_children":[1,3,5,7,-1,9,11,13,15,17,19,21,23,25,27,29,31,33,35,37,39,41,43,45,-1,47,49,51,53,55,57,59,61,63,65,67,69,71,73,75,77,79,81,83,85,87,89,-1,-1,-1,-1,-1,-1,-1,-1,-1,-1,-1,-1,-1,-1,-1,-1,-1,-1,-1,-1,-1,-1,-1,-1,-1,-1,-1,-1,-1,-1,-1,-1,-1,-1,-1,-1,-1,-1,-1,-1,-1,-1,-1,-1],"loss_changes":[6.375232E6,8.3376255E6,4.004035E5,4.020116E6,0E0,5.2998775E5,3.0313E4,8.298134E5,1.84741E6,1.195425E5,2.57342E5,3.7616812E4,7.815E2,4.093766E5,2.93645E4,4.4218072E5,1.07704E5,3.556375E3,5.481078E4,2.5172939E5,5.3784375E2,3.0890578E4,2.9555625E3,4.171875E2,0E0,1.071547E5,4.6971406E5,4.529592E4,3.36425E3,6.7161875E3,8.618144E5,1.3862822E5,9.468E4,5.71625E2,4.9865625E2,3.4774344E4,3.7188125E3,3.170707E4,5.3705016E4,1.1733594E2,1.7489844E2,3.7139297E3,6.919508E3,8.75625E1,4.6275E2,1.179375E2,3.628125E1,0E0,0E0,0E0,0E0,0E0,0E0,0E0,0E0,0E0,0E0,0E0,0E0,0E0,0E0,0E0,0E0,0E0,0E0,0E0,0E0,0E0,0E0,0E0,0E0,0E0,0E0,0E0,0E0,0E0,0E0,0E0,0E0,0E0,0E0,0E0,0E0,0E0,0E0,0E0,0E0,0E0,0E0,0E0,0E0],"parents":[2147483647,0,0,1,1,2,2,3,3,5,5,6,6,7,7,8,8,9,9,10,10,11,11,12,12,13,13,14,14,15,15,16,16,17,17,18,18,19,19,20,20,21,21,22,22,23,23,25,25,26,26,27,27,28,28,29,29,30,30,31,31,32,32,33,33,34,34,35,35,36,36,37,37,38,38,39,39,40,40,41,41,42,42,43,43,44,44,45,45,46,46],"right_children":[2,4,6,8,-1,10,12,14,16,18,20,22,24,26,28,30,32,34,36,38,40,42,44,46,-1,48,50,52,54,56,58,60,62,64,66,68,70,72,74,76,78,80,82,84,86,88,90,-1,-1,-1,-1,-1,-1,-1,-1,-1,-1,-1,-1,-1,-1,-1,-1,-1,-1,-1,-1,-1,-1,-1,-1,-1,-1,-1,-1,-1,-1,-1,-1,-1,-1,-1,-1,-1,-1,-1,-1,-1,-1,-1,-1],"split_conditions":[5.0503E1,8.601E0,6.4336E1,0E0,1.4927173E-1,1.5E-1,6.918E1,3E-2,6.919E0,5.92E0,1E0,-6E-2,7.1652E1,-4E-3,6E-2,5.616E0,2.1522E1,5.754E0,2.943E1,5.779E0,6.531E0,5.754E0,5.864E0,-4E-2,1.4927168E-1,2.801E1,2.696E1,2.611E1,9E-2,5.461E0,1E0,1E0,4.5238E1,5.747E0,5.888E0,6.303E0,6.498E0,5.616E0,5.9067E1,5.986E0,6.871E0,5.119E0,6.7244E1,5.781E0,6.275E0,5.754E0,5.864E0,1.407549E-1,3.0111426E-2,-9.3727306E-2,7.568107E-2,6.48798E-3,1.2138315E-1,1.2976435E-1,1.4687827E-1,1.525348E-1,6.607944E-2,-1.3968502E-1,3.7395105E-2,-1.4049952E-1,2.3246662E-1,-1.485555E-1,4.397424E-2,1.5081984E-1,1.4250353E-1,1.3376525E-1,1.1905741E-1,6.6058114E-2,-3.136617E-2,1.0534718E-1,1.310591E-1,1.5450883E-1,5.318628E-2,-9.4853394E-2,-1.80317E-2,1.9980577E-1,1.5194814E-1,1.3639648E-1,1.5927279E-1,2.0079537E-1,1.3837178E-1,4.6587687E-2,8.962242E-2,1.4995359E-1,1.4361618E-1,1.2858254E-1,1.4200625E-1,1.4681123E-1,1.3930291E-1,1.4948857E-1,1.4621548E-1],"split_indices":[2,1,2,0,0,12,2,11,1,3,0,12,2,9,11,1,2,1,6,1,1,1,3,12,0,5,6,6,11,1,0,0,2,3,3,3,1,1,2,1,1,1,2,3,1,1,3,0,0,0,0,0,0,0,0,0,0,0,0,0,0,0,0,0,0,0,0,0,0,0,0,0,0,0,0,0,0,0,0,0,0,0,0,0,0,0,0,0,0,0,0],"split_type":[0,0,0,0,0,0,0,0,0,0,0,0,0,0,0,0,0,0,0,0,0,0,0,0,0,0,0,0,0,0,0,0,0,0,0,0,0,0,0,0,0,0,0,0,0,0,0,0,0,0,0,0,0,0,0,0,0,0,0,0,0,0,0,0,0,0,0,0,0,0,0,0,0,0,0,0,0,0,0,0,0,0,0,0,0,0,0,0,0,0,0],"sum_hessian":[1.4236638E7,1.0357535E7,3.8791025E6,8.471965E6,1.8855698E6,1.8668279E6,2.0122746E6,1.890872E6,6.5810935E6,1.2409754E6,6.258525E5,5.671076E5,1.4451669E6,1.1619159E6,7.289561E5,1.2925629E6,5.2885305E6,6.0544694E5,6.3552844E5,5.2245875E5,1.03393766E5,2.0590233E5,3.612053E5,3.21752E5,1.1234149E6,3.5076222E5,8.111537E5,2.0259881E5,5.263573E5,1.5223575E5,1.1403271E6,4.0983344E4,5.247547E6,5.0480366E5,1.0064326E5,2.9197725E5,3.4355122E5,1.2815177E5,3.9430697E5,5.1209492E4,5.2184273E4,5.1508812E4,1.5439352E5,1.8419486E5,1.7701047E5,1.7493353E5,1.4681845E5,1.6789069E5,1.8287153E5,5.837146E5,2.2743906E5,4.3768215E4,1.588306E5,1.695509E5,3.5680644E5,1.4264395E5,9.591789E3,4.6207222E5,6.782549E5,2.388242E4,1.7100922E4,5.22188E6,2.5667469E4,4.0014884E5,1.04654805E5,6.462614E4,3.6017117E4,2.4902031E5,4.295693E4,2.726485E5,7.090271E4,5.1920992E4,7.623078E4,2.5180692E5,1.4250005E5,5.268975E2,5.0682594E4,4.8554E4,3.6302744E3,1.2636435E4,3.887238E4,9.100005E4,6.339347E4,1.58173E5,2.6021846E4,1.4569783E5,3.131263E4,2.4781682E4,1.5015186E5,6.268076E4,8.4137695E4],"tree_param":{"num_deleted":"0","num_feature":"13","num_nodes":"91","size_leaf_vector":"1"}},{"base_weights":[1.257653E-4,6.44708E-1,-5.376496E-1,1.3265606E0,3.8710675E-1,-1.1573029E0,1.4243945E-1,1.4039673E0,1.055684E0,2.9090468E-2,1.0933142E0,-1.375382E0,1.0896914E0,1.4297572E0,1.3192414E0,1.3807042E0,6.961736E-1,-2.38029E-1,1.3185204E0,1.2479094E0,4.055805E-1,1.7176409E0,-1.3987918E0,1.3777041E0,4.2496464E-1,1.4429944E0,1.4015427E0,1.4190714E0,1.1727421E0,1.4375026E0,1.2242965E0,-3.6700523E-1,1.342031E0,1.5312684E-1,-1.1416017E0,7.075575E-1,1.4059384E0,1.0913086E0,1.4245243E0,1.6554132E0,-2.3610118E-1,1.8949617E0,7.4918395E-1,-1.4143534E0,1.6342403E0,1.4396706E0,1.2139636E0,-1.2134199E0,1.3181925E0,1.4276384E-1,1.4852574E-1,1.4302309E-1,1.3404685E-1,1.42982E-1,1.3500969E-1,5.3862E-2,1.3863607E-1,1.5143998E-1,1.3875936E-1,7.339122E-2,1.3708717E-1,-1.4688744E-1,7.6615766E-2,9.56877E-2,1.4560822E-1,1.2077127E-1,-7.8031844E-3,2.9469758E-2,-1.3523525E-1,1.2448879E-1,-5.4580428E-2,1.22492805E-1,1.4640537E-1,1.3352886E-1,9.393538E-2,1.3084212E-1,1.4641361E-1,1.7193618E-1,8.721184E-2,-1.08356856E-1,1.3193938E-1,2.349814E-1,1.6381943E-1,1.8166643E-1,-8.360504E-2,1.0565298E-1,-1.4217453E-1,1.5440062E-1,1.7143238E-1,1.4469622E-1,1.403645E-1,-2.8738504E-2,1.2556653E-1,-1.4599268E-1,-3.337938E-2,1.1666246E-1,1.5240562E-1],"categories":[],"categories_nodes":[],"categories_segments":[],"categories_sizes":[],"default_left":[0,0,0,0,0,1,0,0,1,0,0,0,0,0,1,1,0,0,0,0,0,0,0,0,0,0,1,1,0,0,0,0,0,0,0,1,0,0,0,0,0,0,0,0,0,0,0,0,0,0,0,0,0,0,0,0,0,0,0,0,0,0,0,0,0,0,0,0,0,0,0,0,0,0,0,0,0,0,0,0,0,0,0,0,0,0,0,0,0,0,0,0,0,0,0,0,0],"id":5,"left_children":[1,3,5,7,9,11,-1,13,15,17,19,21,23,25,27,29,31,33,35,37,39,41,43,45,47,49,51,53,55,57,59,61,63,65,67,69,71,73,75,77,79,81,83,85,87,89,91,93,95,-1,-1,-1,-1,-1,-1,-1,-1,-1,-1,-1,-1,-1,-1,-1,-1,-1,-1,-1,-1,-1,-1,-1,-1,-1,-1,-1,-1,-1,-1,-1,-1,-1,-1,-1,-1,-1,-1,-1,-1,-1,-1,-1,-1,-1,-1,-1,-1],"loss_changes":[4.723232E6,1.0885552E6,9.031234E6,3.562975E4,1.1372668E6,2.7663625E6,0E0,2.886E3,4.4131344E4,1.0280879E6,1.6088388E5,3.72606E5,9.561581E4,3.765E2,4.50925E3,1.760375E3,1.2314072E5,8.7392625E5,2.7357E4,3.4169375E4,2.2273394E5,6.636789E3,2.41061E5,3.5338125E3,2.209533E5,4.455E2,5.65E2,1.340625E2,1.6932672E4,5.56375E2,3.7977344E3,8.462048E4,4.8991562E3,4.2066716E5,2.2612444E5,4.3183312E4,4.7121875E3,2.42765E4,2.668375E3,4.717828E3,2.4190931E5,3.8120234E3,1.0127666E4,9.2807E4,1.8575781E2,6.440625E1,5.9902344E3,1.1550414E4,3.0470156E3,0E0,0E0,0E0,0E0,0E0,0E0,0E0,0E0,0E0,0E0,0E0,0E0,0E0,0E0,0E0,0E0,0E0,0E0,0E0,0E0,0E0,0E0,0E0,0E0,0E0,0E0,0E0,0E0,0E0,0E0,0E0,0E0,0E0,0E0,0E0,0E0,0E0,0E0,0E0,0E0,0E0,0E0,0E0,0E0,0E0,0E0,0E0,0E0],"parents":[2147483647,0,0,1,1,2,2,3,3,4,4,5,5,7,7,8,8,9,9,10,10,11,11,12,12,13,13,14,14,15,15,16,16,17,17,18,18,19,19,20,20,21,21,22,22,23,23,24,24,25,25,26,26,27,27,28,28,29,29,30,30,31,31,32,32,33,33,34,34,35,35,36,36,37,37,38,38,39,39,40,40,41,41,42,42,43,43,44,44,45,45,46,46,47,47,48,48],"right_children":[2,4,6,8,10,12,-1,14,16,18,20,22,24,26,28,30,32,34,36,38,40,42,44,46,48,50,52,54,56,58,60,62,64,66,68,70,72,74,76,78,80,82,84,86,88,90,92,94,96,-1,-1,-1,-1,-1,-1,-1,-1,-1,-1,-1,-1,-1,-1,-1,-1,-1,-1,-1,-1,-1,-1,-1,-1,-1,-1,-1,-1,-1,-1,-1,-1,-1,-1,-1,-1,-1,-1,-1,-1,-1,-1,-1,-1,-1,-1,-1,-1],"split_conditions":[6.94E0,-4E-3,8.601E0,-6E-3,2E-3,7.557718E0,1.4243945E-1,-8E-3,5.968E0,1.22E-1,6.629E0,-6.6E-2,-4E-3,-1.1E-2,6.02E0,5.825E0,1.13E-1,6.202E0,1.34E-1,8E-3,-4.9E-2,-7.6E-2,9.1E-2,-6E-3,9.852507E0,5.899E0,6.136E0,5.93E0,9.1E-2,5.461E0,2.81E1,2.953E1,1.34E-1,-9.2E-2,-5.8E-2,6.348E0,1.49E-1,-4.9E-2,1E-2,-5.2E-2,2.9E-2,8.032E0,7.081E0,-5E-3,-3E-3,-7E-3,4.2E-2,7.299E0,1E-3,1.4276384E-1,1.4852574E-1,1.4302309E-1,1.3404685E-1,1.42982E-1,1.3500969E-1,5.3862E-2,1.3863607E-1,1.5143998E-1,1.3875936E-1,7.339122E-2,1.3708717E-1,-1.4688744E-1,7.6615766E-2,9.56877E-2,1.4560822E-1,1.2077127E-1,-7.8031844E-3,2.9469758E-2,-1.3523525E-1,1.2448879E-1,-5.4580428E-2,1.22492805E-1,1.4640537E-1,1.3352886E-1,9.393538E-2,1.3084212E-1,1.4641361E-1,1.7193618E-1,8.721184E-2,-1.08356856E-1,1.3193938E-1,2.349814E-1,1.6381943E-1,1.8166643E-1,-8.360504E-2,1.0565298E-1,-1.4217453E-1,1.5440062E-1,1.7143238E-1,1.4469622E-1,1.403645E-1,-2.8738504E-2,1.2556653E-1,-1.4599268E-1,-3.337938E-2,1.1666246E-1,1.5240562E-1],"split_indices":[1,7,1,7,7,4,0,7,3,8,1,8,7,7,3,3,8,1,8,7,8,8,8,7,4,3,3,3,8,1,6,6,8,8,8,3,8,8,7,8,8,1,1,9,7,7,8,1,7,0,0,0,0,0,0,0,0,0,0,0,0,0,0,0,0,0,0,0,0,0,0,0,0,0,0,0,0,0,0,0,0,0,0,0,0,0,0,0,0,0,0,0,0,0,0,0,0],"split_type":[0,0,0,0,0,0,0,0,0,0,0,0,0,0,0,0,0,0,0,0,0,0,0,0,0,0,0,0,0,0,0,0,0,0,0,0,0,0,0,0,0,0,0,0,0,0,0,0,0,0,0,0,0,0,0,0,0,0,0,0,0,0,0,0,0,0,0,0,0,0,0,0,0,0,0,0,0,0,0,0,0,0,0,0,0,0,0,0,0,0,0,0,0,0,0,0,0],"sum_hessian":[1.3625737E7,6.197436E6,7.4283005E6,1.6993554E6,4.4980805E6,5.6453765E6,1.782924E6,1.3216672E6,3.7768812E5,2.9848785E6,1.513202E6,5.1459445E6,4.9943238E5,1.0132305E6,3.0843675E5,1.9835747E5,1.7933066E5,2.4726442E6,5.1223438E5,1.2354786E6,2.7772347E5,3.8654516E4,5.10729E6,3.4845344E5,1.5097895E5,6.8963344E5,3.2359703E5,1.8343122E5,1.25005516E5,1.4550878E5,5.284869E4,6.777054E4,1.1156011E5,1.725624E6,7.4702025E5,6.4118668E4,4.4811572E5,6.548464E5,5.806322E5,9.421501E4,1.8350845E5,3.2671525E4,5.9829897E3,5.08122E6,2.606982E4,2.5278219E5,9.567125E4,5.326972E4,9.770923E4,5.0586566E5,1.8376781E5,2.201595E5,1.0343753E5,1.5868314E5,2.4748078E4,3.1500494E4,9.350502E4,5.725849E4,8.825029E4,1.2162758E4,4.0685934E4,3.4359562E4,3.3410977E4,2.5489764E4,8.607035E4,3.1024203E5,1.4153819E6,9.5586055E4,6.5143425E5,4.4878676E4,1.9239992E4,1.0891198E5,3.3920372E5,2.5131886E5,4.0352753E5,1.4771367E5,4.3291853E5,8.7102695E4,7.1123184E3,1.187896E5,6.471885E4,1.1785639E4,2.0885887E4,3.5752844E3,2.4077056E3,1.5155073E4,5.066065E6,1.2267595E4,1.3802225E4,2.1019834E5,4.2583836E4,2.5853884E3,9.308587E4,4.160863E4,1.1661089E4,5.627974E4,4.142949E4],"tree_param":{"num_deleted":"0","num_feature":"13","num_nodes":"97","size_leaf_vector":"1"}},{"base_weights":[-1.5898011E-4,-3.6472732E-1,1.0058805E0,-7.3429334E-1,1.3680519E-1,7.014861E-1,1.3233875E0,1.0473844E0,-9.892196E-1,2.200664E-3,1.0539618E0,1.1089509E0,1.3824581E0,1.2698187E0,4.4645274E-1,-1.2110901E0,8.684982E-1,-6.3374513E-1,1.1751368E0,1.3212502E0,7.5171983E-1,1.2941433E0,8.193768E-1,1.3380522E0,1.3952771E0,1.3533225E0,1.0689645E0,9.418925E-2,1.0718726E0,-1.282111E0,9.060013E-1,3.9542338E-1,1.2918823E0,1.4993246E0,-8.248188E-1,5.808871E-1,1.3126656E0,1.3588198E0,1.1721177E0,5.0933045E-1,1.1947734E0,1.3629172E0,1.193259E0,4.495034E-1,1.281946E0,1.3097641E0,1.372503E0,1.3695716E0,1.4035503E0,1.4060041E-1,1.2956212E-1,1.1100342E-1,-1.7710479E-1,1.4918405E-1,-3.440203E-2,-9.977185E-2,1.1300098E-1,1.418073E-1,-1.3243844E-1,5.4187756E-2,1.12781346E-1,-1.2047122E-3,1.02322355E-1,1.1108456E-1,1.4160948E-1,1.6226143E-1,7.849523E-2,-1.0905379E-1,-3.8695883E-2,1.4611316E-2,1.19228415E-1,1.1971056E-1,1.3927025E-1,1.367576E-1,1.3033083E-1,1.3272004E-1,9.290229E-2,1.279298E-1,2.916252E-2,1.0124668E-1,1.3468163E-1,1.3700575E-1,1.3085811E-1,1.107288E-1,1.4056581E-1,1.4328243E-1,1.6047677E-2,1.1048611E-1,1.389506E-1,1.2983558E-1,1.3792531E-1,1.3696085E-1,1.3949409E-1,1.3681674E-1,1.377448E-1,1.4119841E-1,1.3748127E-1],"categories":[],"categories_nodes":[],"categories_segments":[],"categories_sizes":[],"default_left":[0,0,0,0,0,1,0,0,0,0,0,0,0,0,1,1,0,0,0,0,0,0,0,1,0,0,0,0,0,0,0,0,0,0,0,0,0,0,0,0,0,0,0,0,0,0,0,1,0,0,0,0,0,0,0,0,0,0,0,0,0,0,0,0,0,0,0,0,0,0,0,0,0,0,0,0,0,0,0,0,0,0,0,0,0,0,0,0,0,0,0,0,0,0,0,0,0],"id":6,"left_children":[1,3,5,7,-1,9,11,13,15,17,19,21,23,25,27,29,31,33,35,37,39,41,43,45,47,49,51,53,55,57,59,61,63,65,67,69,71,73,75,77,79,81,83,85,87,89,91,93,95,-1,-1,-1,-1,-1,-1,-1,-1,-1,-1,-1,-1,-1,-1,-1,-1,-1,-1,-1,-1,-1,-1,-1,-1,-1,-1,-1,-1,-1,-1,-1,-1,-1,-1,-1,-1,-1,-1,-1,-1,-1,-1,-1,-1,-1,-1,-1,-1],"loss_changes":[4.762232E6,6.1031455E6,3.337885E5,3.5678085E6,0E0,4.3460875E5,2.141075E4,1.3142875E5,2.832433E6,4.4078094E5,9.4707E4,1.9577875E4,7.5275E2,1.203475E4,5.8521523E4,9.23016E5,1.4684719E5,1.561715E5,1.6977812E4,3.48425E3,5.9085688E4,1.543375E3,2.4365586E4,2.875625E2,2.1675E2,1.5390625E3,2.4582422E4,1.0407255E5,1.1516664E4,6.77974E5,1.60923125E4,8.857809E4,8.698625E3,2.7732344E3,4.0915625E4,1.0378905E4,1.5586562E3,2.396875E2,4.7187656E3,5.961325E4,5.3915938E3,4.9609375E1,1.6468984E3,2.2491414E4,1.2037266E3,1.2753125E2,6.78125E0,8.75E-1,1.86625E2,0E0,0E0,0E0,0E0,0E0,0E0,0E0,0E0,0E0,0E0,0E0,0E0,0E0,0E0,0E0,0E0,0E0,0E0,0E0,0E0,0E0,0E0,0E0,0E0,0E0,0E0,0E0,0E0,0E0,0E0,0E0,0E0,0E0,0E0,0E0,0E0,0E0,0E0,0E0,0E0,0E0,0E0,0E0,0E0,0E0,0E0,0E0,0E0],"parents":[2147483647,0,0,1,1,2,2,3,3,5,5,6,6,7,7,8,8,9,9,10,10,11,11,12,12,13,13,14,14,15,15,16,16,17,17,18,18,19,19,20,20,21,21,22,22,23,23,24,24,25,25,26,26,27,27,28,28,29,29,30,30,31,31,32,32,33,33,34,34,35,35,36,36,37,37,38,38,39,39,40,40,41,41,42,42,43,43,44,44,45,45,46,46,47,47,48,48],"right_children":[2,4,6,8,-1,10,12,14,16,18,20,22,24,26,28,30,32,34,36,38,40,42,44,46,48,50,52,54,56,58,60,62,64,66,68,70,72,74,76,78,80,82,84,86,88,90,92,94,96,-1,-1,-1,-1,-1,-1,-1,-1,-1,-1,-1,-1,-1,-1,-1,-1,-1,-1,-1,-1,-1,-1,-1,-1,-1,-1,-1,-1,-1,-1,-1,-1,-1,-1,-1,-1,-1,-1,-1,-1,-1,-1,-1,-1,-1,-1,-1,-1],"split_conditions":[5.1604E1,8.601E0,6.569E1,-3E-3,1.3680519E-1,-1.1E-1,6.918E1,-5E-3,3E-3,3E-3,-5E-3,7.611E0,7.1652E1,-7E-3,5E-2,1.3930423E1,7E-3,5.616E0,5E-3,-7E-3,1E-3,-4E-3,2E-3,-4E-2,-4E-3,-1.1E-2,8.418E0,5.461E0,7.6531773E0,5.461E0,2E-2,4.3543E1,1E-2,5.119E0,5.9969E1,6.234E0,9E-3,6.098E0,5.95E0,5.852E0,5E-3,-5E-3,1E-3,5.754E0,5E-3,4E-3,1E-3,5.968E0,2E-3,1.4060041E-1,1.2956212E-1,1.1100342E-1,-1.7710479E-1,1.4918405E-1,-3.440203E-2,-9.977185E-2,1.1300098E-1,1.418073E-1,-1.3243844E-1,5.4187756E-2,1.12781346E-1,-1.2047122E-3,1.02322355E-1,1.1108456E-1,1.4160948E-1,1.6226143E-1,7.849523E-2,-1.0905379E-1,-3.8695883E-2,1.4611316E-2,1.19228415E-1,1.1971056E-1,1.3927025E-1,1.367576E-1,1.3033083E-1,1.3272004E-1,9.290229E-2,1.279298E-1,2.916252E-2,1.0124668E-1,1.3468163E-1,1.3700575E-1,1.3085811E-1,1.107288E-1,1.4056581E-1,1.4328243E-1,1.6047677E-2,1.1048611E-1,1.389506E-1,1.2983558E-1,1.3792531E-1,1.3696085E-1,1.3949409E-1,1.3681674E-1,1.377448E-1,1.4119841E-1,1.3748127E-1],"split_indices":[2,1,2,7,0,12,2,7,7,7,7,3,2,7,11,4,7,1,7,7,7,7,7,12,7,7,1,1,4,1,11,2,7,1,2,1,7,1,3,3,7,7,7,1,7,7,7,3,7,0,0,0,0,0,0,0,0,0,0,0,0,0,0,0,0,0,0,0,0,0,0,0,0,0,0,0,0,0,0,0,0,0,0,0,0,0,0,0,0,0,0,0,0,0,0,0,0],"split_type":[0,0,0,0,0,0,0,0,0,0,0,0,0,0,0,0,0,0,0,0,0,0,0,0,0,0,0,0,0,0,0,0,0,0,0,0,0,0,0,0,0,0,0,0,0,0,0,0,0,0,0,0,0,0,0,0,0,0,0,0,0,0,0,0,0,0,0,0,0,0,0,0,0,0,0,0,0,0,0,0,0,0,0,0,0,0,0,0,0,0,0,0,0,0,0,0,0],"sum_hessian":[1.2984241E7,9.530559E6,3.4536815E6,7.8552065E6,1.6753526E6,1.7632525E6,1.6904289E6,9.832533E5,6.871953E6,5.909175E5,1.172335E6,3.6509378E5,1.3253351E6,7.176244E5,2.6562897E5,6.1387875E6,7.331657E5,3.8316984E5,2.0774764E5,6.2214044E5,5.5019456E5,2.2267925E5,1.4241452E5,2.9691422E5,1.0284209E6,5.068844E5,2.1073995E5,1.6992245E5,9.570652E4,5.9395375E6,1.992502E5,3.462641E5,3.869016E5,3.1500793E4,3.5166906E5,3.9044594E4,1.6870305E5,4.9694206E5,1.25198375E5,3.5563372E5,1.9456086E5,1.3240488E5,9.027438E4,7.9137555E4,6.3276965E4,1.6306162E5,1.338526E5,2.5044042E5,7.779805E5,2.649557E5,2.419287E5,2.0773647E5,3.0034868E3,4.0558953E4,1.2936351E5,2.6146047E3,9.309192E4,9.155374E4,5.8479835E6,7.542953E4,1.2382067E5,2.0997916E5,1.3628494E5,1.5744256E5,2.2945905E5,2.686332E4,4.6374717E3,2.1885406E5,1.3281498E5,2.2818934E4,1.6225661E4,6.903864E4,9.9664414E4,4.2921656E5,6.772549E4,7.643322E4,4.8765156E4,7.838856E4,2.7724516E5,8.8478516E4,1.0608234E5,1.17005266E5,1.53996E4,6.4267543E4,2.600684E4,1.7975998E4,6.1161555E4,2.391501E4,3.9361957E4,1.400829E5,2.2978717E4,1.1861257E5,1.5240025E4,2.1269775E5,3.774267E4,6.014274E5,1.7655312E5],"tree_param":{"num_deleted":"0","num_feature":"13","num_nodes":"97","size_leaf_vector":"1"}},{"base_weights":[-3.6373353E-4,-3.1617993E-1,9.086392E-1,-6.561943E-1,1.3209926E-1,1.2617301E0,6.0748833E-1,2.9047027E-1,-1.2638328E0,1.3097736E0,1.103823E0,-5.141448E-1,9.4383866E-1,-5.225086E-2,9.3054277E-1,1.5127898E0,-1.2959667E0,1.3322084E0,1.2767383E0,9.7488505E-1,1.3148551E0,-8.778502E-1,1.1814033E0,6.526607E-1,1.3276715E0,1.318689E0,-2.9734024E-1,1.1166348E0,2.3700725E-1,1.8108705E0,6.081027E-1,-1.3122568E0,1.5792516E0,1.3226023E0,1.3490468E0,1.2226967E0,1.331502E0,1.2544633E0,6.984472E-1,1.1708163E0,1.3393742E0,9.713424E-1,-1.0895042E0,4.4093177E-1,1.3172714E0,1.0664097E0,2.0372143E-1,1.2136436E0,1.3704573E0,1.3908805E-1,5.955572E-2,8.006481E-2,-7.5165376E-2,9.579959E-2,1.3168626E-1,1.287401E-1,-1.0721111E-1,2.3354952E-1,1.5361378E-1,1.778711E-1,-8.781021E-2,4.7145825E-2,-1.3206019E-1,1.4646123E-1,1.6763154E-1,1.329388E-1,1.3212727E-1,1.3656919E-1,1.3261843E-1,1.3094701E-1,9.928443E-2,1.283968E-1,1.3367307E-1,1.2985097E-1,1.08857706E-1,5.984487E-3,1.2195255E-1,1.3257149E-1,1.0670878E-1,1.2935777E-1,1.3530518E-1,6.556504E-2,1.4505066E-1,-1.2877099E-1,5.708161E-2,-1.8684028E-2,1.21346824E-1,1.0832591E-1,1.3644251E-1,1.24883585E-1,8.801243E-2,-3.345231E-2,1.1690263E-1,1.1406697E-1,1.3614883E-1,1.468052E-1,1.3606118E-1],"categories":[],"categories_nodes":[],"categories_segments":[],"categories_sizes":[],"default_left":[1,0,0,0,0,0,0,0,0,0,0,0,0,0,0,0,0,0,0,0,0,0,0,0,0,0,0,0,0,0,0,0,0,0,0,0,0,0,0,0,0,0,0,0,0,0,0,0,0,0,0,0,0,0,0,0,0,0,0,0,0,0,0,0,0,0,0,0,0,0,0,0,0,0,0,0,0,0,0,0,0,0,0,0,0,0,0,0,0,0,0,0,0,0,0,0,0],"id":7,"left_children":[1,3,5,7,-1,9,11,13,15,17,19,21,23,25,27,29,31,33,35,37,39,41,43,45,47,49,51,53,55,57,59,61,63,65,67,69,71,73,75,77,79,81,83,85,87,89,91,93,95,-1,-1,-1,-1,-1,-1,-1,-1,-1,-1,-1,-1,-1,-1,-1,-1,-1,-1,-1,-1,-1,-1,-1,-1,-1,-1,-1,-1,-1,-1,-1,-1,-1,-1,-1,-1,-1,-1,-1,-1,-1,-1,-1,-1,-1,-1,-1,-1],"loss_changes":[3.5268115E6,5.07537E6,3.3683325E5,4.342742E6,0E0,1.106025E4,6.4496575E5,6.4744425E5,4.10265E5,8.26875E2,9.254219E3,2.4321778E5,1.4699088E5,6.458661E5,1.3283325E5,1.4185156E4,2.12905E5,1.05875E2,1.3365625E3,1.6317891E4,4.5401562E2,1.2710044E5,7.007547E3,1.3891478E5,2.76625E3,1.5217844E4,8.1343425E5,2.577475E4,2.9941644E5,5.699453E3,2.268601E4,6.728E4,2.825039E2,2.125E0,9.015625E1,4.5382812E3,5.4125E1,7.656094E2,3.5330043E4,3.002246E2,6.7296875E1,5.0441543E3,9.589219E4,5.238676E3,6.479922E2,1.322475E4,1.863606E5,1.6685781E3,3.94375E2,0E0,0E0,0E0,0E0,0E0,0E0,0E0,0E0,0E0,0E0,0E0,0E0,0E0,0E0,0E0,0E0,0E0,0E0,0E0,0E0,0E0,0E0,0E0,0E0,0E0,0E0,0E0,0E0,0E0,0E0,0E0,0E0,0E0,0E0,0E0,0E0,0E0,0E0,0E0,0E0,0E0,0E0,0E0,0E0,0E0,0E0,0E0,0E0],"parents":[2147483647,0,0,1,1,2,2,3,3,5,5,6,6,7,7,8,8,9,9,10,10,11,11,12,12,13,13,14,14,15,15,16,16,17,17,18,18,19,19,20,20,21,21,22,22,23,23,24,24,25,25,26,26,27,27,28,28,29,29,30,30,31,31,32,32,33,33,34,34,35,35,36,36,37,37,38,38,39,39,40,40,41,41,42,42,43,43,44,44,45,45,46,46,47,47,48,48],"right_children":[2,4,6,8,-1,10,12,14,16,18,20,22,24,26,28,30,32,34,36,38,40,42,44,46,48,50,52,54,56,58,60,62,64,66,68,70,72,74,76,78,80,82,84,86,88,90,92,94,96,-1,-1,-1,-1,-1,-1,-1,-1,-1,-1,-1,-1,-1,-1,-1,-1,-1,-1,-1,-1,-1,-1,-1,-1,-1,-1,-1,-1,-1,-1,-1,-1,-1,-1,-1,-1,-1,-1,-1,-1,-1,-1,-1,-1,-1,-1,-1,-1],"split_conditions":[7.4960027E0,8.601E0,-5E-3,6.897E0,1.3209926E-1,-7E-3,9.954538E0,2E-3,-5.8E-2,-1.1E-2,1.13E-1,4E-3,1.34E-1,5.616E0,6.597E0,-7E-2,9.1E-2,5.92E0,9.1E-2,6.012E0,1.22E-1,5.91E0,7E-3,6.15E0,1.49E-1,5.461E0,-7E-2,9E-3,-3.9E-2,7.081E0,7.03E0,-5E-3,-3E-3,9.633208E0,-1.5E-2,6.136E0,9.8E-2,5.899E0,4E-2,6.246E0,1.34E-1,8.5E-2,7.268E0,7.4E-2,1E-2,5.93E0,2E-3,0E0,1.3778048E1,1.3908805E-1,5.955572E-2,8.006481E-2,-7.5165376E-2,9.579959E-2,1.3168626E-1,1.287401E-1,-1.0721111E-1,2.3354952E-1,1.5361378E-1,1.778711E-1,-8.781021E-2,4.7145825E-2,-1.3206019E-1,1.4646123E-1,1.6763154E-1,1.329388E-1,1.3212727E-1,1.3656919E-1,1.3261843E-1,1.3094701E-1,9.928443E-2,1.283968E-1,1.3367307E-1,1.2985097E-1,1.08857706E-1,5.984487E-3,1.2195255E-1,1.3257149E-1,1.0670878E-1,1.2935777E-1,1.3530518E-1,6.556504E-2,1.4505066E-1,-1.2877099E-1,5.708161E-2,-1.8684028E-2,1.21346824E-1,1.0832591E-1,1.3644251E-1,1.24883585E-1,8.801243E-2,-3.345231E-2,1.1690263E-1,1.1406697E-1,1.3614883E-1,1.468052E-1,1.3606118E-1],"split_indices":[4,1,7,1,0,7,4,7,8,7,8,7,8,1,1,8,8,3,8,3,8,3,7,3,8,1,8,7,8,1,1,7,7,4,7,3,8,3,11,3,8,8,1,8,7,3,7,7,4,0,0,0,0,0,0,0,0,0,0,0,0,0,0,0,0,0,0,0,0,0,0,0,0,0,0,0,0,0,0,0,0,0,0,0,0,0,0,0,0,0,0,0,0,0,0,0,0],"split_type":[0,0,0,0,0,0,0,0,0,0,0,0,0,0,0,0,0,0,0,0,0,0,0,0,0,0,0,0,0,0,0,0,0,0,0,0,0,0,0,0,0,0,0,0,0,0,0,0,0,0,0,0,0,0,0,0,0,0,0,0,0,0,0,0,0,0,0,0,0,0,0,0,0,0,0,0,0,0,0,0,0,0,0,0,0,0,0,0,0,0,0,0,0,0,0,0,0],"sum_hessian":[1.2285207E7,9.117501E6,3.167706E6,7.549576E6,1.567925E6,1.4581101E6,1.7095958E6,2.9514278E6,4.5981485E6,1.1179612E6,3.401489E5,3.9439606E5,1.3151998E6,1.9222024E6,1.0292253E6,5.260505E4,4.5455435E6,6.657804E5,4.521809E5,2.111467E5,1.2900219E5,3.2473822E5,6.965784E4,7.478664E5,5.673333E5,2.9152338E5,1.630679E6,8.114841E5,2.177412E5,3.9567242E4,1.3037811E4,4.5199355E6,2.5608041E4,4.2398356E5,2.4179678E5,2.276027E5,2.2457822E5,1.049753E5,1.061714E5,1.8772238E4,1.1022995E5,3.3351047E4,2.9138716E5,1.0800443E4,5.8857402E4,3.8918575E5,3.5868062E5,1.5480186E5,4.1253147E5,2.6506097E5,2.6462414E4,4.77252E5,1.153427E6,4.5276616E5,3.5871797E5,1.2080846E5,9.6932734E4,1.359637E4,2.5970871E4,7.2931606E3,5.7446504E3,2.1047412E4,4.498888E6,1.1748398E4,1.3859644E4,6.930607E4,3.546775E5,1.3989089E5,1.0190589E5,1.6522327E5,6.2379438E4,2.2280207E4,2.0229802E5,8.294482E4,2.2030479E4,4.7706402E4,5.8464996E4,7.524328E3,1.1247909E4,2.5372113E4,8.4857836E4,2.0106484E4,1.3244564E4,2.6031189E5,3.1075273E4,5.958917E3,4.841527E3,9.874873E3,4.898253E4,1.9662675E5,1.9255902E5,2.3027961E5,1.28401E5,1.0365041E5,5.1151457E4,3.7789457E4,3.74742E5],"tree_param":{"num_deleted":"0","num_feature":"13","num_nodes":"97","size_leaf_vector":"1"}},{"base_weights":[-2.884151E-4,-3.312272E-1,9.4503826E-1,-6.606099E-1,1.2812708E-1,6.666277E-1,1.2768337E0,9.419679E-1,-9.0189844E-1,3.6008406E-2,9.914639E-1,1.0464847E0,1.3106104E0,1.1583544E0,3.8271004E-1,-1.1212059E0,7.7425337E-1,-4.5053345E-1,1.1610833E0,1.2398169E0,7.197054E-1,8.3584654E-1,1.2851132E0,1.2632153E0,1.3244141E0,1.2478478E0,9.427048E-1,-1.210052E-1,1.1916721E0,-1.2120575E0,1.117789E0,3.5114115E-1,1.181336E0,1.454221E0,-9.8114336E-1,6.4019537E-1,1.2183616E0,1.2625959E0,1.036998E0,6.5376E-2,1.1737059E0,1.3608818E0,5.9359586E-1,1.2675672E0,1.6106075E0,1.2448835E0,1.3063222E0,1.2843138E0,1.3367807E0,1.3039906E-1,1.1854767E-1,9.8366834E-2,-1.6129306E-1,1.351329E-1,-5.808987E-2,6.063927E-2,1.2782218E-1,1.3138609E-1,-1.2522326E-1,3.785306E-3,1.2510507E-1,1.3395162E-1,-9.659248E-3,9.967045E-2,1.310687E-1,1.5230589E-1,1.4284985E-1,1.0631507E-1,-1.3178036E-1,9.405503E-2,-7.3122196E-2,1.0712593E-1,1.2851387E-1,1.2805915E-1,1.20049536E-1,1.22179925E-1,7.828593E-2,-5.128872E-2,1.1044326E-1,8.9596204E-2,1.3027455E-1,1.402391E-1,1.3084029E-1,1.24296166E-1,1.3007163E-2,1.1326136E-1,1.3131489E-1,1.723596E-1,1.313536E-1,1.3064362E-1,1.23240255E-1,1.2862788E-1,1.3222036E-1,1.2817769E-1,1.2994932E-1,1.2987879E-1,1.3511434E-1],"categories":[],"categories_nodes":[],"categories_segments":[],"categories_sizes":[],"default_left":[0,0,0,0,0,1,0,0,0,0,0,0,0,0,0,0,0,0,0,0,0,0,0,0,0,0,0,0,0,0,0,0,0,0,0,0,0,0,0,0,0,0,0,0,0,0,0,0,0,0,0,0,0,0,0,0,0,0,0,0,0,0,0,0,0,0,0,0,0,0,0,0,0,0,0,0,0,0,0,0,0,0,0,0,0,0,0,0,0,0,0,0,0,0,0,0,0],"id":8,"left_children":[1,3,5,7,-1,9,11,13,15,17,19,21,23,25,27,29,31,33,35,37,39,41,43,45,47,49,51,53,55,57,59,61,63,65,67,69,71,73,75,77,79,81,83,85,87,89,91,93,95,-1,-1,-1,-1,-1,-1,-1,-1,-1,-1,-1,-1,-1,-1,-1,-1,-1,-1,-1,-1,-1,-1,-1,-1,-1,-1,-1,-1,-1,-1,-1,-1,-1,-1,-1,-1,-1,-1,-1,-1,-1,-1,-1,-1,-1,-1,-1,-1],"loss_changes":[3.6356585E6,4.571876E6,2.78365E5,2.7639295E6,0E0,3.3564956E5,1.0696E4,1.13192875E5,2.2836405E6,3.0493812E5,7.2989125E4,8.836797E3,7.8275E2,1.30145625E4,1.06331625E5,1.1174945E6,1.23804625E5,3.9304816E5,5.0169062E3,2.609375E3,1.5340484E5,1.1878004E4,4.6876562E2,2.1203125E2,4.5875E2,1.667375E3,2.0708719E4,1.0889001E5,5.0715312E3,5.35754E5,3.0829562E4,1.559719E5,8.7475625E3,1.4784375E2,2.0933597E5,6.864483E3,1.4869531E3,5.66125E2,2.6789297E3,1.2709914E5,1.0925281E4,6.239453E1,1.923629E4,4.7970312E2,1.3914062E2,1.441875E2,2.3984375E1,6.75E0,3.85625E2,0E0,0E0,0E0,0E0,0E0,0E0,0E0,0E0,0E0,0E0,0E0,0E0,0E0,0E0,0E0,0E0,0E0,0E0,0E0,0E0,0E0,0E0,0E0,0E0,0E0,0E0,0E0,0E0,0E0,0E0,0E0,0E0,0E0,0E0,0E0,0E0,0E0,0E0,0E0,0E0,0E0,0E0,0E0,0E0,0E0,0E0,0E0,0E0],"parents":[2147483647,0,0,1,1,2,2,3,3,5,5,6,6,7,7,8,8,9,9,10,10,11,11,12,12,13,13,14,14,15,15,16,16,17,17,18,18,19,19,20,20,21,21,22,22,23,23,24,24,25,25,26,26,27,27,28,28,29,29,30,30,31,31,32,32,33,33,34,34,35,35,36,36,37,37,38,38,39,39,40,40,41,41,42,42,43,43,44,44,45,45,46,46,47,47,48,48],"right_children":[2,4,6,8,-1,10,12,14,16,18,20,22,24,26,28,30,32,34,36,38,40,42,44,46,48,50,52,54,56,58,60,62,64,66,68,70,72,74,76,78,80,82,84,86,88,90,92,94,96,-1,-1,-1,-1,-1,-1,-1,-1,-1,-1,-1,-1,-1,-1,-1,-1,-1,-1,-1,-1,-1,-1,-1,-1,-1,-1,-1,-1,-1,-1,-1,-1,-1,-1,-1,-1,-1,-1,-1,-1,-1,-1,-1,-1,-1,-1,-1,-1],"split_conditions":[5.2765E1,8.601E0,6.7244E1,-3E-3,1.2812708E-1,-1E-1,6.918E1,-5E-3,3E-3,4E-3,-5E-3,5.8E-2,7.1652E1,-7E-3,1.22E-1,1.22E-1,7E-3,-1.3E-1,5E-3,-6E-3,9.1E-2,-1.06E-1,7.611E0,7E-2,-4E-3,-1.1E-2,8.334E0,5.461E0,1.34E-1,5.461E0,1.34E-1,-4.9E-2,1E-2,5.837E0,5.683E0,-3.4E-2,8E-3,6.003E0,5.93E0,3E-3,1.22E-1,-1.3E-1,5.779E0,8.5E-2,3E-3,-1.06E-1,-4E-3,5.957E0,-9.2E-2,1.3039906E-1,1.1854767E-1,9.8366834E-2,-1.6129306E-1,1.351329E-1,-5.808987E-2,6.063927E-2,1.2782218E-1,1.3138609E-1,-1.2522326E-1,3.785306E-3,1.2510507E-1,1.3395162E-1,-9.659248E-3,9.967045E-2,1.310687E-1,1.5230589E-1,1.4284985E-1,1.0631507E-1,-1.3178036E-1,9.405503E-2,-7.3122196E-2,1.0712593E-1,1.2851387E-1,1.2805915E-1,1.20049536E-1,1.22179925E-1,7.828593E-2,-5.128872E-2,1.1044326E-1,8.9596204E-2,1.3027455E-1,1.402391E-1,1.3084029E-1,1.24296166E-1,1.3007163E-2,1.1326136E-1,1.3131489E-1,1.723596E-1,1.313536E-1,1.3064362E-1,1.23240255E-1,1.2862788E-1,1.3222036E-1,1.2817769E-1,1.2994932E-1,1.2987879E-1,1.3511434E-1],"split_indices":[2,1,2,7,0,12,2,7,7,7,7,8,2,7,8,8,7,8,7,7,8,8,3,8,7,7,1,1,8,1,8,8,7,1,1,8,7,3,3,7,8,8,1,8,7,8,7,1,8,0,0,0,0,0,0,0,0,0,0,0,0,0,0,0,0,0,0,0,0,0,0,0,0,0,0,0,0,0,0,0,0,0,0,0,0,0,0,0,0,0,0,0,0,0,0,0,0],"split_type":[0,0,0,0,0,0,0,0,0,0,0,0,0,0,0,0,0,0,0,0,0,0,0,0,0,0,0,0,0,0,0,0,0,0,0,0,0,0,0,0,0,0,0,0,0,0,0,0,0,0,0,0,0,0,0,0,0,0,0,0,0,0,0,0,0,0,0,0,0,0,0,0,0,0,0,0,0,0,0,0,0,0,0,0,0,0,0,0,0,0,0,0,0,0,0,0,0],"sum_hessian":[1.1621265E7,8.607843E6,3.0134222E6,7.147777E6,1.4600656E6,1.6385299E6,1.3748925E6,9.353583E5,6.2124185E6,5.570685E5,1.0814614E6,1.7582705E5,1.1990654E6,6.7441456E5,2.6094377E5,5.4936325E6,7.1878594E5,3.8889175E5,1.6817673E5,5.650622E5,5.163992E5,9.339315E4,8.243391E4,2.7047712E5,9.2858825E5,4.7661675E5,1.977978E5,1.6081203E5,1.0013174E5,5.279411E6,2.1422172E5,3.524547E5,3.6633125E5,8.473019E4,3.0416156E5,1.6662262E4,1.5151447E5,5.080021E5,5.7060074E4,2.1153092E5,3.0486825E5,2.948501E4,6.390814E4,7.822214E4,4.21176E3,1.8979447E5,8.0682664E4,2.1889397E5,7.096943E5,2.5082166E5,2.2579508E5,1.9467798E5,3.1198198E3,3.8274742E4,1.2253729E5,1.290068E4,8.723106E4,8.2655086E4,5.196756E6,2.3530941E4,1.9069078E5,1.0988369E5,2.4257098E5,1.5092061E5,2.1541064E5,2.3032625E4,6.1697566E4,4.3007277E4,2.6115427E5,1.3668935E4,2.993327E3,4.7310938E4,1.0420353E5,3.9385162E5,1.1415046E5,3.3034594E4,2.4025479E4,1.3589961E5,7.563131E4,9.671257E4,2.081557E5,1.6448791E4,1.3036219E4,2.661736E4,3.729078E4,1.9756129E4,5.8466016E4,3.0477673E3,1.1639922E3,3.1979115E4,1.5781536E5,3.5703914E4,4.4978754E4,1.8762272E5,3.127125E4,1.9471545E5,5.1497884E5],"tree_param":{"num_deleted":"0","num_feature":"13","num_nodes":"97","size_leaf_vector":"1"}},{"base_weights":[6.047004E-5,-3.1900224E-1,9.047369E-1,-6.3497025E-1,1.2474456E-1,6.026792E-1,1.2008737E0,-8.861111E-1,7.996369E-1,9.252344E-1,-2.9907702E-2,9.600807E-1,1.2692239E0,1.1331804E0,-9.848203E-1,3.6847144E-1,1.1747694E0,1.2141218E0,6.79815E-1,1.3602935E0,-3.0979457E-1,7.2722673E-1,1.2319237E0,1.2176616E0,1.284365E0,1.2859234E0,4.8295254E-1,3.3983195E-1,-1.1084615E0,-1.5596326E-1,9.893699E-1,9.929233E-1,1.2929711E0,1.2586569E0,1.094112E0,1.7918263E-1,1.139247E0,1.4303619E0,1.3328822E0,8.081126E-1,-6.0546046E-1,1.1594406E0,4.2649776E-1,1.1165906E0,1.283446E0,1.196508E0,1.2680471E0,1.260993E0,1.2998525E0,1.2965165E-1,9.192794E-2,2.315471E-3,1.0779116E-1,-6.3065685E-2,9.465494E-2,1.6495056E-2,-1.1528253E-1,1.0161275E-1,-3.555287E-2,1.2380729E-1,5.994001E-2,7.9315014E-2,1.244017E-1,1.4520721E-1,1.2762235E-1,1.2652588E-1,1.1969858E-1,9.780737E-2,1.2923084E-1,3.9328042E-2,-8.425296E-3,8.1541024E-2,1.2534754E-1,1.3203835E-1,1.4648405E-1,1.2651472E-1,1.3702793E-1,1.2867185E-1,4.0077243E-2,-8.8287406E-2,1.2851694E-1,1.2862183E-1,9.008371E-2,1.2534904E-1,-2.9047646E-3,1.2789826E-1,8.428263E-2,1.2694818E-1,1.6515176E-1,1.2681067E-1,1.1820978E-1,1.2598439E-1,1.2886159E-1,1.2517284E-1,1.270232E-1,1.2703978E-1,1.3274024E-1],"categories":[],"categories_nodes":[],"categories_segments":[],"categories_sizes":[],"default_left":[0,0,0,0,0,0,0,0,0,0,0,0,0,0,0,0,0,0,0,0,0,0,0,0,0,1,1,0,0,1,0,0,0,0,0,0,0,0,0,0,0,0,0,1,0,0,0,0,0,0,0,0,0,0,0,0,0,0,0,0,0,0,0,0,0,0,0,0,0,0,0,0,0,0,0,0,0,0,0,0,0,0,0,0,0,0,0,0,0,0,0,0,0,0,0,0,0],"id":9,"left_children":[1,3,5,7,-1,9,11,13,15,17,19,21,23,25,27,29,31,33,35,37,39,41,43,45,47,49,51,53,55,57,59,61,63,65,67,69,71,73,75,77,79,81,83,85,87,89,91,93,95,-1,-1,-1,-1,-1,-1,-1,-1,-1,-1,-1,-1,-1,-1,-1,-1,-1,-1,-1,-1,-1,-1,-1,-1,-1,-1,-1,-1,-1,-1,-1,-1,-1,-1,-1,-1,-1,-1,-1,-1,-1,-1,-1,-1,-1,-1,-1,-1],"loss_changes":[3.1497725E6,3.9927622E6,2.5449425E5,2.4186062E6,0E0,2.8739006E5,2.3643375E4,1.138707E6,1.617585E5,6.613525E4,1.8507417E5,2.0105375E4,8.72125E2,2.6442625E4,8.920585E5,1.5151045E5,1.1493875E4,2.2885625E3,1.1600566E5,1.511875E2,1.3086766E5,2.2237617E4,8.69375E2,2.6921875E2,3.115E2,8.3615625E2,1.3855299E4,2.7378738E5,2.814295E5,5.9002406E4,2.0662672E4,1.0567234E4,8.618125E2,1.2571875E2,2.6659688E3,1.36129E4,9.727781E3,8.301172E1,1.434375E2,1.6144703E4,1.6422881E5,2.300289E3,3.8009562E4,2.0110195E3,5.185156E2,1.8310938E2,1.10546875E1,2.79375E1,4.20375E2,0E0,0E0,0E0,0E0,0E0,0E0,0E0,0E0,0E0,0E0,0E0,0E0,0E0,0E0,0E0,0E0,0E0,0E0,0E0,0E0,0E0,0E0,0E0,0E0,0E0,0E0,0E0,0E0,0E0,0E0,0E0,0E0,0E0,0E0,0E0,0E0,0E0,0E0,0E0,0E0,0E0,0E0,0E0,0E0,0E0,0E0,0E0,0E0],"parents":[2147483647,0,0,1,1,2,2,3,3,5,5,6,6,7,7,8,8,9,9,10,10,11,11,12,12,13,13,14,14,15,15,16,16,17,17,18,18,19,19,20,20,21,21,22,22,23,23,24,24,25,25,26,26,27,27,28,28,29,29,30,30,31,31,32,32,33,33,34,34,35,35,36,36,37,37,38,38,39,39,40,40,41,41,42,42,43,43,44,44,45,45,46,46,47,47,48,48],"right_children":[2,4,6,8,-1,10,12,14,16,18,20,22,24,26,28,30,32,34,36,38,40,42,44,46,48,50,52,54,56,58,60,62,64,66,68,70,72,74,76,78,80,82,84,86,88,90,92,94,96,-1,-1,-1,-1,-1,-1,-1,-1,-1,-1,-1,-1,-1,-1,-1,-1,-1,-1,-1,-1,-1,-1,-1,-1,-1,-1,-1,-1,-1,-1,-1,-1,-1,-1,-1,-1,-1,-1,-1,-1,-1,-1,-1,-1,-1,-1,-1,-1],"split_conditions":[5.2765E1,8.601E0,6.569E1,6.2E-2,1.2474456E-1,0E0,6.918E1,5.683E0,1.22E-1,5.888E0,-1.3E-1,5.8E-2,7.1652E1,5.461E0,-3.9E-2,6.897E0,1.49E-1,5.765E0,9.8E-2,5.837E0,5.754E0,5.801E0,9.1E-2,7E-2,6.15E0,5.584E0,2.594E1,1E0,-3E-3,5.968E0,2.8864E1,6.895E0,1.3373022E1,5.729E0,8.5E-2,3.093E1,1.22E-1,5.683E0,5.9067E1,5.616E0,1E0,5.724E0,-1.06E-1,5.91E0,0E0,-1.06E-1,6.15E0,5.801E0,-7E-2,1.2965165E-1,9.192794E-2,2.315471E-3,1.0779116E-1,-6.3065685E-2,9.465494E-2,1.6495056E-2,-1.1528253E-1,1.0161275E-1,-3.555287E-2,1.2380729E-1,5.994001E-2,7.9315014E-2,1.244017E-1,1.4520721E-1,1.2762235E-1,1.2652588E-1,1.1969858E-1,9.780737E-2,1.2923084E-1,3.9328042E-2,-8.425296E-3,8.1541024E-2,1.2534754E-1,1.3203835E-1,1.4648405E-1,1.2651472E-1,1.3702793E-1,1.2867185E-1,4.0077243E-2,-8.8287406E-2,1.2851694E-1,1.2862183E-1,9.008371E-2,1.2534904E-1,-2.9047646E-3,1.2789826E-1,8.428263E-2,1.2694818E-1,1.6515176E-1,1.2681067E-1,1.1820978E-1,1.2598439E-1,1.2886159E-1,1.2517284E-1,1.270232E-1,1.2703978E-1,1.3274024E-1],"split_indices":[2,1,2,8,0,0,2,1,8,3,8,8,2,1,8,1,8,3,8,1,1,1,8,8,3,3,5,0,9,3,2,3,4,3,8,5,8,1,2,1,0,1,8,3,0,8,3,1,8,0,0,0,0,0,0,0,0,0,0,0,0,0,0,0,0,0,0,0,0,0,0,0,0,0,0,0,0,0,0,0,0,0,0,0,0,0,0,0,0,0,0,0,0,0,0,0,0],"split_type":[0,0,0,0,0,0,0,0,0,0,0,0,0,0,0,0,0,0,0,0,0,0,0,0,0,0,0,0,0,0,0,0,0,0,0,0,0,0,0,0,0,0,0,0,0,0,0,0,0,0,0,0,0,0,0,0,0,0,0,0,0,0,0,0,0,0,0,0,0,0,0,0,0,0,0,0,0,0,0,0,0,0,0,0,0,0,0,0,0,0,0,0,0,0,0,0,0],"sum_hessian":[1.0912137E7,8.0670405E6,2.845096E6,6.712969E6,1.3540716E6,1.4084692E6,1.4366268E6,5.712879E6,1.0000903E6,9.328235E5,4.756458E5,3.1763516E5,1.1189915E6,2.662476E5,5.446631E6,4.652959E5,5.3479444E5,4.2846534E5,5.0435812E5,7.971192E4,3.9593388E5,1.7108864E5,1.4654653E5,2.5401995E5,8.6497156E5,2.1560055E5,5.064704E4,4.6498025E5,4.981651E6,2.5224275E5,2.1305317E5,2.1068208E5,3.2411234E5,3.1249175E5,1.1597361E5,2.4135769E5,2.6300047E5,2.2400621E4,5.7311305E4,8.2813984E4,3.131199E5,7.019708E4,1.00891555E5,4.5258242E4,1.012883E5,1.7892558E5,7.509439E4,3.4476712E5,5.202044E5,2.0954381E5,6.0567266E3,2.8569174E4,2.2077863E4,1.7886794E5,2.861123E5,1.6771006E5,4.813941E6,3.669879E4,2.1554395E5,1.30087664E5,8.296551E4,1.1733395E5,9.334813E4,3.0859928E4,2.932524E5,2.8225644E5,3.0235316E4,7.31514E4,4.282221E4,1.3314686E5,1.0821081E5,6.858124E4,1.944192E5,5.3558853E3,1.7044734E4,2.0398916E4,3.691239E4,3.8075215E4,4.4738773E4,2.7305488E5,4.006503E4,4.7101902E4,2.3095178E4,3.5835105E4,6.505645E4,2.8405154E4,1.6853088E4,9.759028E4,3.6980164E3,2.996342E4,1.4896216E5,5.3728574E4,2.1365814E4,1.7221127E5,1.7255588E5,2.5143378E5,2.6877066E5],"tree_param":{"num_deleted":"0","num_feature":"13","num_nodes":"97","size_leaf_vector":"1"}},{"base_weights":[-7.382776E-6,-3.4746152E-1,7.6216525E-1,-6.8492246E-1,1.21842556E-1,4.5052704E-1,1.1317374E0,-9.3420297E-1,7.022067E-1,1.1327591E0,1.5528953E-1,8.887164E-1,1.2335545E0,-1.0613048E0,8.1960213E-1,2.4685694E-1,1.0833056E0,1.1986456E0,8.897547E-1,-2.6444831E-1,9.547613E-1,6.2679976E-1,1.1784968E0,1.1775144E0,1.250106E0,1.1659203E0,-1.1401418E0,1.2331164E-1,1.0971578E0,9.192632E-1,-4.308978E-1,7.977232E-1,1.1962368E0,1.2203741E0,1.0837812E0,1.157309E0,5.22759E-1,-6.937313E-1,1.0659684E0,5.413802E-1,1.1636571E0,1.124716E0,3.4289405E-1,1.0345818E0,1.2349616E0,1.1533451E0,1.2352773E0,1.2204344E0,1.259194E0,1.2449845E-1,1.0184018E-2,1.09466195E-1,-1.1838045E-1,1.10306434E-1,-1.0111272E-1,8.447877E-2,1.290226E-1,1.1607262E-1,3.9666213E-2,-1.0070604E-1,1.1468977E-1,3.7366193E-2,1.1822654E-1,1.0557892E-1,1.2500331E-1,1.22705534E-1,1.1694621E-1,8.946847E-2,1.231547E-1,1.206092E-1,9.700271E-2,-4.183974E-2,1.06672995E-1,1.343225E-1,-9.126023E-2,4.2314034E-2,1.2356349E-1,2.632287E-2,1.2231662E-1,1.01057924E-1,1.2240841E-1,1.2277984E-1,8.1760004E-2,1.1763697E-1,-8.463752E-3,1.2304455E-1,6.857489E-2,1.2193977E-1,1.636574E-1,1.23560585E-1,1.13715075E-1,1.2218624E-1,1.2457847E-1,1.2186109E-1,1.2313372E-1,1.2683612E-1,1.2262459E-1],"categories":[],"categories_nodes":[],"categories_segments":[],"categories_sizes":[],"default_left":[0,0,0,0,0,0,0,0,0,0,0,0,0,0,0,0,0,0,1,0,0,0,0,0,0,0,0,0,0,0,0,0,0,0,0,1,0,0,0,0,0,0,0,1,0,0,0,0,0,0,0,0,0,0,0,0,0,0,0,0,0,0,0,0,0,0,0,0,0,0,0,0,0,0,0,0,0,0,0,0,0,0,0,0,0,0,0,0,0,0,0,0,0,0,0,0,0],"id":10,"left_children":[1,3,5,7,-1,9,11,13,15,17,19,21,23,25,27,29,31,33,35,37,39,41,43,45,47,49,51,53,55,57,59,61,63,65,67,69,71,73,75,77,79,81,83,85,87,89,91,93,95,-1,-1,-1,-1,-1,-1,-1,-1,-1,-1,-1,-1,-1,-1,-1,-1,-1,-1,-1,-1,-1,-1,-1,-1,-1,-1,-1,-1,-1,-1,-1,-1,-1,-1,-1,-1,-1,-1,-1,-1,-1,-1,-1,-1,-1,-1,-1,-1],"loss_changes":[2.7280065E6,3.738996E6,3.7150475E5,2.0128832E6,0E0,3.5248197E5,3.6512E4,1.099947E6,1.538834E5,8.4616875E3,4.098683E5,3.3068625E4,9.63125E2,8.07882E5,6.4441125E4,1.8412592E5,1.55680625E4,1.0365E3,1.1070258E4,4.5742512E5,3.631078E4,3.2351273E4,1.6795938E3,3.29625E2,2.15E2,1.32331875E4,4.336065E5,1.0563078E5,1.16153125E4,2.559236E4,1.8291772E5,2.2307953E4,2.6124375E3,1.175E2,1.8474219E3,5.945781E2,2.4339766E4,2.6996625E5,2.1309547E4,2.6769414E4,2.582625E3,2.6299688E3,5.193746E4,3.9820078E3,9.266094E2,2.2134375E2,8.3359375E0,2.28125E0,1.84125E2,0E0,0E0,0E0,0E0,0E0,0E0,0E0,0E0,0E0,0E0,0E0,0E0,0E0,0E0,0E0,0E0,0E0,0E0,0E0,0E0,0E0,0E0,0E0,0E0,0E0,0E0,0E0,0E0,0E0,0E0,0E0,0E0,0E0,0E0,0E0,0E0,0E0,0E0,0E0,0E0,0E0,0E0,0E0,0E0,0E0,0E0,0E0,0E0],"parents":[2147483647,0,0,1,1,2,2,3,3,5,5,6,6,7,7,8,8,9,9,10,10,11,11,12,12,13,13,14,14,15,15,16,16,17,17,18,18,19,19,20,20,21,21,22,22,23,23,24,24,25,25,26,26,27,27,28,28,29,29,30,30,31,31,32,32,33,33,34,34,35,35,36,36,37,37,38,38,39,39,40,40,41,41,42,42,43,43,44,44,45,45,46,46,47,47,48,48],"right_children":[2,4,6,8,-1,10,12,14,16,18,20,22,24,26,28,30,32,34,36,38,40,42,44,46,48,50,52,54,56,58,60,62,64,66,68,70,72,74,76,78,80,82,84,86,88,90,92,94,96,-1,-1,-1,-1,-1,-1,-1,-1,-1,-1,-1,-1,-1,-1,-1,-1,-1,-1,-1,-1,-1,-1,-1,-1,-1,-1,-1,-1,-1,-1,-1,-1,-1,-1,-1,-1,-1,-1,-1,-1,-1,-1,-1,-1,-1,-1,-1,-1],"split_conditions":[4.7987E1,8.601E0,6.4336E1,5.1E-2,1.21842556E-1,-5E-3,6.918E1,5E-3,1.13E-1,-7E-3,2E-3,5.5E-2,7.1652E1,5.616E0,7E-3,-4E-3,1.34E-1,6.098E0,5.95E0,1.13E-1,5E-3,5.779E0,8.5E-2,7E-2,-4E-3,5.461E0,-6E-3,-3.9E-2,1E-2,3.028E1,3E-3,6.922E0,1.49E-1,-8E-3,8.5E-2,5.852E0,8.5E-2,-1.3E-1,1.34E-1,8.5E-2,7E-3,5.724E0,-1.06E-1,5.888E0,0E0,-1.06E-1,-4E-3,5.957E0,2E-3,1.2449845E-1,1.0184018E-2,1.09466195E-1,-1.1838045E-1,1.10306434E-1,-1.0111272E-1,8.447877E-2,1.290226E-1,1.1607262E-1,3.9666213E-2,-1.0070604E-1,1.1468977E-1,3.7366193E-2,1.1822654E-1,1.0557892E-1,1.2500331E-1,1.22705534E-1,1.1694621E-1,8.946847E-2,1.231547E-1,1.206092E-1,9.700271E-2,-4.183974E-2,1.06672995E-1,1.343225E-1,-9.126023E-2,4.2314034E-2,1.2356349E-1,2.632287E-2,1.2231662E-1,1.01057924E-1,1.2240841E-1,1.2277984E-1,8.1760004E-2,1.1763697E-1,-8.463752E-3,1.2304455E-1,6.857489E-2,1.2193977E-1,1.636574E-1,1.23560585E-1,1.13715075E-1,1.2218624E-1,1.2457847E-1,1.2186109E-1,1.2313372E-1,1.2683612E-1,1.2262459E-1],"split_indices":[2,1,2,8,0,7,2,7,8,7,7,8,2,1,7,7,8,1,3,8,7,1,8,8,7,1,7,8,7,2,7,3,8,7,8,3,8,8,8,8,7,1,8,3,0,8,7,1,7,0,0,0,0,0,0,0,0,0,0,0,0,0,0,0,0,0,0,0,0,0,0,0,0,0,0,0,0,0,0,0,0,0,0,0,0,0,0,0,0,0,0,0,0,0,0,0,0],"split_type":[0,0,0,0,0,0,0,0,0,0,0,0,0,0,0,0,0,0,0,0,0,0,0,0,0,0,0,0,0,0,0,0,0,0,0,0,0,0,0,0,0,0,0,0,0,0,0,0,0,0,0,0,0,0,0,0,0,0,0,0,0,0,0,0,0,0,0,0,0,0,0,0,0,0,0,0,0,0,0,0,0,0,0,0,0,0,0,0,0,0,0,0,0,0,0,0,0],"sum_hessian":[1.0301358E7,7.0757245E6,3.2256332E6,5.821209E6,1.2545156E6,1.7499808E6,1.4756525E6,4.9344425E6,8.867666E5,5.28568E5,1.2214128E6,4.357051E5,1.0399474E6,4.600999E6,3.3344338E5,4.0402534E5,4.8274128E5,4.158212E5,1.12746836E5,8.009169E5,4.2049588E5,2.28857E5,2.068481E5,2.3713302E5,8.028144E5,1.5729342E5,4.4437055E6,9.503505E4,2.3840834E5,2.0281273E5,2.012126E5,1.3680205E5,3.4593922E5,3.496663E5,6.6154875E4,6.5206543E4,4.754029E4,6.055316E5,1.9538525E5,1.4115992E5,2.7933594E5,8.310457E4,1.4575244E5,5.8292875E4,1.4855522E5,1.671956E5,6.993743E4,1.8826955E5,6.145448E5,1.4641423E5,1.0879183E4,8.5155E4,4.3585505E6,5.0994188E4,4.4040855E4,1.0333666E5,1.3507169E5,1.387181E5,6.4094645E4,1.4739047E5,5.3822125E4,6.5058984E4,7.174306E4,9.581414E4,2.501251E5,3.090824E5,4.0583926E4,2.9022158E4,3.7132715E4,5.172726E4,1.3479281E4,1.7413092E4,3.0127197E4,5.875104E4,5.467806E5,4.080143E4,1.5458383E5,1.002584E5,4.0901523E4,7.906393E4,2.0027202E5,6.2218242E4,2.0886326E4,4.9415273E4,9.633716E4,3.7330125E4,2.0962752E4,1.430168E5,5.5384126E3,2.7488742E4,1.3970684E5,3.0770123E4,3.916731E4,1.6138906E5,2.6880486E4,4.807487E5,1.3379612E5],"tree_param":{"num_deleted":"0","num_feature":"13","num_nodes":"97","size_leaf_vector":"1"}},{"base_weights":[-1.0624998E-5,-3.6052245E-1,6.844554E-1,-7.096802E-1,1.1933694E-1,3.4984195E-1,1.0439942E0,-9.52653E-1,6.9979906E-1,1.1290083E0,1.07047275E-1,8.0472404E-1,1.2026534E0,-1.0538387E0,6.708762E-1,9.284257E-2,9.51573E-1,1.1975099E0,9.736037E-1,-3.412854E-1,9.520593E-1,1.0543895E0,4.086475E-1,1.1411768E0,1.2209083E0,1.1509409E0,-1.1314086E0,2.8189281E-2,1.1027898E0,8.5465294E-1,-6.950649E-1,7.035137E-1,1.1639441E0,1.2992225E0,1.1939882E0,1.1251605E0,5.9808046E-1,-6.8510133E-1,1.1775423E0,5.622632E-1,1.138307E0,1.1898158E0,8.7178105E-1,1.1375197E0,4.3386597E-2,1.1139754E0,1.2069039E0,1.2033527E0,1.2324908E0,1.2140687E-1,8.566001E-3,9.180047E-2,-1.1728265E-1,9.895617E-2,-1.00770734E-1,7.8480236E-2,1.2438895E-1,1.1053103E-1,-6.6421255E-3,-1.07922904E-1,1.12296596E-1,1.4482348E-2,1.12388276E-1,1.02419555E-1,1.21840514E-1,1.3319835E-1,1.1977085E-1,1.2001856E-1,1.1419071E-1,1.23990394E-1,9.6105985E-2,-4.2351983E-2,1.096821E-1,9.305438E-2,-9.308593E-2,9.8493725E-2,1.244659E-1,-1.5031557E-4,1.0806948E-1,9.7361326E-2,1.20474234E-1,1.20304264E-1,1.1034923E-1,1.097614E-2,1.1176755E-1,1.2841968E-1,8.53511E-2,-6.682404E-2,1.106926E-1,1.20757736E-1,1.0957148E-1,1.1825285E-1,1.2106772E-1,1.19464E-1,1.2139046E-1,1.21008575E-1,1.253194E-1],"categories":[],"categories_nodes":[],"categories_segments":[],"categories_sizes":[],"default_left":[0,0,0,0,0,0,0,0,0,1,0,0,0,0,0,0,0,0,0,0,0,0,0,0,0,0,0,0,0,0,0,0,0,0,0,0,0,0,0,0,0,0,0,0,0,0,0,0,0,0,0,0,0,0,0,0,0,0,0,0,0,0,0,0,0,0,0,0,0,0,0,0,0,0,0,0,0,0,0,0,0,0,0,0,0,0,0,0,0,0,0,0,0,0,0,0,0],"id":11,"left_children":[1,3,5,7,-1,9,11,13,15,17,19,21,23,25,27,29,31,33,35,37,39,41,43,45,47,49,51,53,55,57,59,61,63,65,67,69,71,73,75,77,79,81,83,85,87,89,91,93,95,-1,-1,-1,-1,-1,-1,-1,-1,-1,-1,-1,-1,-1,-1,-1,-1,-1,-1,-1,-1,-1,-1,-1,-1,-1,-1,-1,-1,-1,-1,-1,-1,-1,-1,-1,-1,-1,-1,-1,-1,-1,-1,-1,-1,-1,-1,-1,-1],"loss_changes":[2.3781695E6,3.4249862E6,4.0001162E5,1.7652382E6,0E0,3.2579497E5,6.084425E4,7.2226525E5,1.15820125E5,4.3543438E3,4.974335E5,6.3192906E4,1.080125E3,7.078135E5,7.1600484E4,1.3338166E5,2.8219875E4,1.0021875E2,7.123664E3,4.47977E5,3.3042906E4,9.692375E3,6.577942E4,3.931875E2,1.495E2,9.459172E3,3.39361E5,1.0324907E5,6.9206562E3,2.6083906E4,7.629455E4,5.8030062E4,2.1953125E3,2.9969727E1,8.721875E1,1.6780938E3,1.8341043E4,2.7775022E5,2.0457812E3,4.301199E4,3.3687188E3,2.55625E2,3.1275484E4,3.4349766E3,1.2457425E5,2.6545312E2,4.515625E0,2.571875E1,2.06125E2,0E0,0E0,0E0,0E0,0E0,0E0,0E0,0E0,0E0,0E0,0E0,0E0,0E0,0E0,0E0,0E0,0E0,0E0,0E0,0E0,0E0,0E0,0E0,0E0,0E0,0E0,0E0,0E0,0E0,0E0,0E0,0E0,0E0,0E0,0E0,0E0,0E0,0E0,0E0,0E0,0E0,0E0,0E0,0E0,0E0,0E0,0E0,0E0],"parents":[2147483647,0,0,1,1,2,2,3,3,5,5,6,6,7,7,8,8,9,9,10,10,11,11,12,12,13,13,14,14,15,15,16,16,17,17,18,18,19,19,20,20,21,21,22,22,23,23,24,24,25,25,26,26,27,27,28,28,29,29,30,30,31,31,32,32,33,33,34,34,35,35,36,36,37,37,38,38,39,39,40,40,41,41,42,42,43,43,44,44,45,45,46,46,47,47,48,48],"right_children":[2,4,6,8,-1,10,12,14,16,18,20,22,24,26,28,30,32,34,36,38,40,42,44,46,48,50,52,54,56,58,60,62,64,66,68,70,72,74,76,78,80,82,84,86,88,90,92,94,96,-1,-1,-1,-1,-1,-1,-1,-1,-1,-1,-1,-1,-1,-1,-1,-1,-1,-1,-1,-1,-1,-1,-1,-1,-1,-1,-1,-1,-1,-1,-1,-1,-1,-1,-1,-1,-1,-1,-1,-1,-1,-1,-1,-1,-1,-1,-1,-1],"split_conditions":[4.5238E1,8.601E0,6.1993E1,5.1E-2,1.1933694E-1,-6E-3,6.918E1,5E-3,9.1E-2,6.012E0,2E-3,7.635E0,7.1652E1,5.616E0,8E-3,-4E-3,1.34E-1,4.7987E1,-8E-3,1.34E-1,5E-3,-4E-3,-1.06E-1,7E-2,6.15E0,5.461E0,-5E-3,-3.7E-2,1E-2,3.0036E1,4E-3,6.944E0,1.49E-1,-8E-3,-7E-3,-1.1E-2,8.5E-2,5.683E0,1.49E-1,6.438E0,7E-3,-5E-3,7.4E-2,-1.3E-1,3E-3,-1.06E-1,8E-2,-4E-3,-7E-2,1.2140687E-1,8.566001E-3,9.180047E-2,-1.1728265E-1,9.895617E-2,-1.00770734E-1,7.8480236E-2,1.2438895E-1,1.1053103E-1,-6.6421255E-3,-1.07922904E-1,1.12296596E-1,1.4482348E-2,1.12388276E-1,1.02419555E-1,1.21840514E-1,1.3319835E-1,1.1977085E-1,1.2001856E-1,1.1419071E-1,1.23990394E-1,9.6105985E-2,-4.2351983E-2,1.096821E-1,9.305438E-2,-9.308593E-2,9.8493725E-2,1.244659E-1,-1.5031557E-4,1.0806948E-1,9.7361326E-2,1.20474234E-1,1.20304264E-1,1.1034923E-1,1.097614E-2,1.1176755E-1,1.2841968E-1,8.53511E-2,-6.682404E-2,1.106926E-1,1.20757736E-1,1.0957148E-1,1.1825285E-1,1.2106772E-1,1.19464E-1,1.2139046E-1,1.21008575E-1,1.253194E-1],"split_indices":[2,1,2,8,0,7,2,7,8,3,7,3,2,1,7,7,8,2,7,8,7,7,8,8,3,1,7,8,7,2,7,3,8,7,7,7,8,1,8,1,7,7,8,8,7,8,8,7,8,0,0,0,0,0,0,0,0,0,0,0,0,0,0,0,0,0,0,0,0,0,0,0,0,0,0,0,0,0,0,0,0,0,0,0,0,0,0,0,0,0,0,0,0,0,0,0,0],"split_type":[0,0,0,0,0,0,0,0,0,0,0,0,0,0,0,0,0,0,0,0,0,0,0,0,0,0,0,0,0,0,0,0,0,0,0,0,0,0,0,0,0,0,0,0,0,0,0,0,0,0,0,0,0,0,0,0,0,0,0,0,0,0,0,0,0,0,0,0,0,0,0,0,0,0,0,0,0,0,0,0,0,0,0,0,0,0,0,0,0,0,0,0,0,0,0,0,0],"sum_hessian":[9.637654E6,6.312715E6,3.3249392E6,5.154504E6,1.1582108E6,1.722166E6,1.6027732E6,4.396598E6,7.579062E5,4.0914656E5,1.3130194E6,6.39047E5,9.6372625E5,4.1386582E6,2.5793967E5,2.2221336E5,5.356929E5,2.8396812E5,1.25178445E5,8.57867E5,4.5515244E5,3.91969E5,2.4707797E5,2.2066462E5,7.430616E5,1.4065952E5,3.9979985E6,1.0367397E5,1.542657E5,1.12977664E5,1.09235695E5,2.4708748E5,2.8860538E5,9.490576E3,2.7447753E5,8.918319E4,3.5995258E4,6.995181E5,1.5834886E5,1.4716208E5,3.0799034E5,2.2505666E5,1.6691234E5,8.248279E4,1.6459517E5,1.5608589E5,6.4578723E4,2.954116E5,4.4765006E5,1.3279031E5,7.8691943E3,7.9197125E4,3.9188015E6,5.3771203E4,4.9902766E4,4.7415355E4,1.0685035E5,8.880927E4,2.4168393E4,9.01803E4,1.9055395E4,1.060901E5,1.4099739E5,8.093751E4,2.0766786E5,7.165863E3,2.3247136E3,2.4526986E5,2.9207676E4,5.2480727E4,3.670246E4,1.1808122E4,2.4187137E4,9.235585E4,6.071623E5,4.0924133E4,1.1742472E5,7.049911E4,7.666297E4,8.853277E4,2.1945758E5,1.951431E5,2.991356E4,4.0720902E4,1.2619144E5,5.4389586E4,2.8093205E4,9.861264E4,6.598254E4,2.5469117E4,1.3061678E5,8.698588E3,5.5880133E4,1.6186989E5,1.335417E5,2.150175E5,2.3263255E5],"tree_param":{"num_deleted":"0","num_feature":"13","num_nodes":"97","size_leaf_vector":"1"}},{"base_weights":[5.024164E-4,-3.5459194E-1,6.508789E-1,9.7829354E-1,-4.7650725E-1,3.4911343E-1,1.0358975E0,1.1220088E0,6.686189E-1,-5.344907E-1,9.862176E-1,1.0482948E0,1.06695965E-1,7.887311E-1,1.1756375E0,1.1501288E0,7.405512E-1,1.1233387E0,3.777689E-1,-5.8296895E-1,9.6163017E-1,5.380612E-1,1.1621845E0,1.1357498E0,7.363404E-1,-3.359276E-1,9.118575E-1,5.1218253E-1,1.1072612E0,1.1093874E0,1.1955327E0,1.1807015E0,9.675678E-1,1.2863977E0,-9.254011E-1,9.21195E-1,1.3203814E0,-1.5275942E-1,1.106097E0,-9.153557E-1,-3.902573E-1,5.989995E-1,1.1991923E0,1.180041E0,-1.2498967E-1,9.7056365E-1,1.2378703E0,1.1791555E0,1.0289173E0,1.0882828E0,3.125699E-1,-6.8176544E-1,1.0234592E0,5.307987E-1,1.1030933E0,2.9599488E-1,1.1265709E0,9.5944685E-1,1.1868352E0,1.0794234E0,1.1825496E0,1.1730883E0,1.2023395E0,1.19500935E-1,1.11807846E-1,6.331914E-2,1.1588947E-1,1.3062729E-1,4.461868E-2,1.0868233E-1,-1.338957E-1,4.781597E-2,1.163122E-1,8.293513E-2,1.369369E-1,1.14321165E-1,-6.9989525E-2,7.817743E-2,1.1782713E-1,-9.7640075E-2,8.852119E-2,-7.028151E-3,-6.7949414E-2,1.3368805E-2,1.1501656E-1,1.3158491E-1,1.179328E-1,8.2680605E-2,1.2423934E-1,-1.1568674E-1,1.2112973E-1,5.6250215E-2,1.18923E-1,1.3996573E-1,1.2302399E-1,1.2734604E-1,1.17613375E-1,1.2085334E-1,8.633329E-2,1.16099894E-1,8.616181E-2,-7.255807E-2,9.768088E-2,1.4018463E-1,-8.5253395E-2,2.7730405E-2,1.13819376E-1,1.1187615E-1,8.2231285E-3,9.273155E-2,1.1761492E-1,1.154438E-1,-5.622425E-3,8.862152E-2,1.21972226E-1,1.1733557E-1,5.8532387E-2,1.16867624E-1,1.6572458E-1,1.18328266E-1,1.0594113E-1,1.1552397E-1,1.18682764E-1,1.17185414E-1,1.1822102E-1,1.2093022E-1,1.17708854E-1],"categories":[],"categories_nodes":[],"categories_segments":[],"categories_sizes":[],"default_left":[0,0,0,0,0,0,0,0,0,0,0,0,0,0,0,0,0,1,0,0,0,0,0,1,1,0,0,0,0,0,0,0,0,0,0,0,0,0,0,0,0,0,1,0,0,0,0,0,0,1,0,0,0,0,0,0,0,1,0,0,0,1,0,0,0,0,0,0,0,0,0,0,0,0,0,0,0,0,0,0,0,0,0,0,0,0,0,0,0,0,0,0,0,0,0,0,0,0,0,0,0,0,0,0,0,0,0,0,0,0,0,0,0,0,0,0,0,0,0,0,0,0,0,0,0,0,0],"id":12,"left_children":[1,3,5,7,9,11,13,15,17,19,21,23,25,27,29,31,33,35,37,39,41,43,45,47,49,51,53,55,57,59,61,63,65,67,69,71,73,75,77,79,81,83,85,87,89,91,93,95,97,99,101,103,105,107,109,111,113,115,117,119,121,123,125,-1,-1,-1,-1,-1,-1,-1,-1,-1,-1,-1,-1,-1,-1,-1,-1,-1,-1,-1,-1,-1,-1,-1,-1,-1,-1,-1,-1,-1,-1,-1,-1,-1,-1,-1,-1,-1,-1,-1,-1,-1,-1,-1,-1,-1,-1,-1,-1,-1,-1,-1,-1,-1,-1,-1,-1,-1,-1,-1,-1,-1,-1,-1,-1],"loss_changes":[2.0785439E6,9.4601325E5,3.6929688E5,2.1711688E4,4.5237912E5,3.020232E5,4.82365E4,3.5735E3,2.0452344E4,3.7210562E5,1.6037516E4,1.25150625E4,4.7155116E5,4.4433188E4,1.1745E3,1.731E3,2.0807719E4,2.4016797E3,3.644509E4,3.1831288E5,1.3870875E4,2.4408426E4,2.1167188E3,1.6602812E3,1.4981508E4,4.01394E5,3.4202625E4,3.58625E4,2.7560938E3,4.5046875E2,1.034375E2,2.368125E2,2.8475781E3,2.8721875E2,4.700902E3,3.191502E3,7.3365625E2,3.8695336E4,9.2953125E2,2.00462E5,2.9112316E5,1.63458125E4,2.2389062E2,6.4064453E2,3.8897984E4,3.689207E3,1.27515625E2,7.109375E1,3.0780234E3,9.034922E2,3.1429803E4,2.4218262E5,1.4823844E4,4.1365406E4,4.0121562E3,6.03896E4,1.5724062E3,6.564703E3,1.2997344E3,3.0259375E2,5.6171875E0,4.21875E-1,9.11875E1,0E0,0E0,0E0,0E0,0E0,0E0,0E0,0E0,0E0,0E0,0E0,0E0,0E0,0E0,0E0,0E0,0E0,0E0,0E0,0E0,0E0,0E0,0E0,0E0,0E0,0E0,0E0,0E0,0E0,0E0,0E0,0E0,0E0,0E0,0E0,0E0,0E0,0E0,0E0,0E0,0E0,0E0,0E0,0E0,0E0,0E0,0E0,0E0,0E0,0E0,0E0,0E0,0E0,0E0,0E0,0E0,0E0,0E0,0E0,0E0,0E0,0E0,0E0,0E0],"parents":[2147483647,0,0,1,1,2,2,3,3,4,4,5,5,6,6,7,7,8,8,9,9,10,10,11,11,12,12,13,13,14,14,15,15,16,16,17,17,18,18,19,19,20,20,21,21,22,22,23,23,24,24,25,25,26,26,27,27,28,28,29,29,30,30,31,31,32,32,33,33,34,34,35,35,36,36,37,37,38,38,39,39,40,40,41,41,42,42,43,43,44,44,45,45,46,46,47,47,48,48,49,49,50,50,51,51,52,52,53,53,54,54,55,55,56,56,57,57,58,58,59,59,60,60,61,61,62,62],"right_children":[2,4,6,8,10,12,14,16,18,20,22,24,26,28,30,32,34,36,38,40,42,44,46,48,50,52,54,56,58,60,62,64,66,68,70,72,74,76,78,80,82,84,86,88,90,92,94,96,98,100,102,104,106,108,110,112,114,116,118,120,122,124,126,-1,-1,-1,-1,-1,-1,-1,-1,-1,-1,-1,-1,-1,-1,-1,-1,-1,-1,-1,-1,-1,-1,-1,-1,-1,-1,-1,-1,-1,-1,-1,-1,-1,-1,-1,-1,-1,-1,-1,-1,-1,-1,-1,-1,-1,-1,-1,-1,-1,-1,-1,-1,-1,-1,-1,-1,-1,-1,-1,-1,-1,-1,-1,-1],"split_conditions":[4.4801E1,-4E-3,6.3119E1,-6E-3,7E-3,-5E-3,6.918E1,0E0,2.8186E1,1.22E-1,9E-3,-7E-3,2E-3,5.5E-2,7.1652E1,3.6365E1,-2.6E-2,7.427E0,1.22E-1,1E0,1.49E-1,-3.2E-2,1.1E-2,6.028E0,5.959E0,1.22E-1,5E-3,3E-3,9.1E-2,7E-2,-4E-3,-7E-3,9.8E-2,-3E-2,2.3078E1,8.5E-2,3.9E-2,5.888E0,1.34E-1,2E-3,1E-3,0E0,1.3373022E1,3.88E1,2E-2,3.9428E1,2.3385E1,4.7987E1,-1.1E-2,5.839E0,9.1E-2,-1.3E-1,1.34E-1,-4.5E-2,7E-3,-4E-3,5E-3,5.899E0,0E0,-1.06E-1,8E-2,6.012E0,2E-3,1.19500935E-1,1.11807846E-1,6.331914E-2,1.1588947E-1,1.3062729E-1,4.461868E-2,1.0868233E-1,-1.338957E-1,4.781597E-2,1.163122E-1,8.293513E-2,1.369369E-1,1.14321165E-1,-6.9989525E-2,7.817743E-2,1.1782713E-1,-9.7640075E-2,8.852119E-2,-7.028151E-3,-6.7949414E-2,1.3368805E-2,1.1501656E-1,1.3158491E-1,1.179328E-1,8.2680605E-2,1.2423934E-1,-1.1568674E-1,1.2112973E-1,5.6250215E-2,1.18923E-1,1.3996573E-1,1.2302399E-1,1.2734604E-1,1.17613375E-1,1.2085334E-1,8.633329E-2,1.16099894E-1,8.616181E-2,-7.255807E-2,9.768088E-2,1.4018463E-1,-8.5253395E-2,2.7730405E-2,1.13819376E-1,1.1187615E-1,8.2231285E-3,9.273155E-2,1.1761492E-1,1.154438E-1,-5.622425E-3,8.862152E-2,1.21972226E-1,1.1733557E-1,5.8532387E-2,1.16867624E-1,1.6572458E-1,1.18328266E-1,1.0594113E-1,1.1552397E-1,1.18682764E-1,1.17185414E-1,1.1822102E-1,1.2093022E-1,1.17708854E-1],"split_indices":[2,7,2,7,7,7,2,0,2,8,7,7,7,8,2,2,8,3,8,0,8,8,7,3,3,8,7,7,8,8,7,7,8,8,2,8,8,3,8,7,7,7,4,2,8,2,2,2,7,3,8,8,8,8,7,7,7,3,0,8,8,3,7,0,0,0,0,0,0,0,0,0,0,0,0,0,0,0,0,0,0,0,0,0,0,0,0,0,0,0,0,0,0,0,0,0,0,0,0,0,0,0,0,0,0,0,0,0,0,0,0,0,0,0,0,0,0,0,0,0,0,0,0,0,0,0,0],"split_type":[0,0,0,0,0,0,0,0,0,0,0,0,0,0,0,0,0,0,0,0,0,0,0,0,0,0,0,0,0,0,0,0,0,0,0,0,0,0,0,0,0,0,0,0,0,0,0,0,0,0,0,0,0,0,0,0,0,0,0,0,0,0,0,0,0,0,0,0,0,0,0,0,0,0,0,0,0,0,0,0,0,0,0,0,0,0,0,0,0,0,0,0,0,0,0,0,0,0,0,0,0,0,0,0,0,0,0,0,0,0,0,0,0,0,0,0,0,0,0,0,0,0,0,0,0,0,0],"sum_hessian":[9.000165E6,5.8216465E6,3.1785182E6,4.878654E5,5.333781E6,1.7819128E6,1.3966054E6,3.3322038E5,1.5464505E5,5.1304085E6,2.0337245E5,4.58758E5,1.3231548E6,5.0441816E5,8.9218725E5,3.103408E5,2.2879559E4,6.032658E4,9.431847E4,4.969388E6,1.6102064E5,5.734049E4,1.4603197E5,3.583059E5,1.0045206E5,8.537959E5,4.6935884E5,2.7000328E5,2.344149E5,2.0606267E5,6.861246E5,2.658197E5,4.4521117E4,1.7233318E4,5.64624E3,2.9780643E4,3.0545938E4,5.456966E4,3.974881E4,1.8237694E6,3.1456185E6,6.3734938E4,9.7285695E4,2.913276E4,2.8207727E4,4.1351727E4,1.0468024E5,2.5477964E5,1.0352627E5,5.4875914E4,4.557615E4,6.806373E5,1.7315856E5,1.568404E5,3.1251844E5,1.9972619E5,7.027707E4,8.203747E4,1.5237744E5,1.4620097E5,5.9861703E4,1.5970317E5,5.2642144E5,2.1636712E5,4.9452574E4,1.620479E4,2.8316326E4,1.6834543E4,3.9877493E2,9.6231396E2,4.6839263E3,1.0519498E4,1.9261145E4,2.7725935E3,2.7773344E4,1.6198961E4,3.83707E4,7.237621E3,3.2511188E4,1.7639658E6,5.9803695E4,1.4934509E6,1.6521678E6,3.4559758E4,2.917518E4,1.4145977E4,8.313972E4,4.373059E3,2.4759701E4,1.5916882E4,1.2290846E4,1.4428926E4,2.6922799E4,4.706539E3,9.99737E4,7.896999E3,2.4688264E5,4.9656082E4,5.3870195E4,4.1544074E4,1.3331842E4,1.778288E4,2.779327E4,5.1557484E4,6.290798E5,2.3078053E4,1.500805E5,6.78734E4,8.8967016E4,9.175733E4,2.2076112E5,5.810587E4,1.4162033E5,1.9631904E4,5.0645168E4,5.2193273E4,2.9844191E4,1.467173E5,5.6601357E3,2.3610314E4,1.2259066E5,8.1439707E3,5.1717734E4,1.4078508E5,1.89181E4,4.1260378E5,1.13817625E5],"tree_param":{"num_deleted":"0","num_feature":"13","num_nodes":"127","size_leaf_vector":"1"}},{"base_weights":[1.0201533E-3,-2.639487E-1,7.842184E-1,9.0487665E-1,-3.8961238E-1,5.30115E-1,1.1078248E0,1.0627186E0,5.428199E-1,-5.1434857E-1,6.5786046E-1,1.0692168E0,2.2907977E-1,8.449171E-1,1.1515772E0,1.1431193E0,9.1932493E-1,1.4884564E-1,9.8235285E-1,-5.688747E-1,1.0384136E0,3.122106E-1,1.024367E0,1.1314228E0,8.359524E-1,-6.504815E-2,9.679046E-1,6.568453E-1,1.1297331E0,1.0786277E0,1.1735597E0,1.1661968E0,1.086077E0,6.1587244E-1,1.1240572E0,1.1363947E0,-3.0722526E-1,8.686728E-1,1.2162428E0,-9.2405087E-1,-3.307197E-1,6.4719075E-1,1.171855E0,1.2165536E0,-8.728308E-2,8.2695127E-1,1.1728499E0,1.1516699E0,1.0537637E0,1.1510082E0,5.5521184E-1,-4.895103E-1,9.917211E-1,7.151909E-1,1.1350847E0,1.1329237E0,4.1266435E-1,1.0007234E0,1.177411E0,1.0451952E0,1.1610816E0,1.1601079E0,1.1823732E0,1.1836652E-1,1.1421376E-1,1.1435864E-1,9.133897E-2,1.151932E-1,-4.681721E-2,1.1705281E-1,9.555012E-2,1.21172965E-1,7.43139E-2,-1.0527426E-1,9.856713E-2,-2.5485843E-2,1.0588695E-1,2.3238732E-2,1.2730019E-1,2.2303179E-1,-9.502017E-2,-5.5858805E-3,-6.0459353E-2,4.124348E-2,1.09096624E-1,1.24376416E-1,1.1548143E-1,8.28363E-2,1.3121583E-1,-5.3783096E-2,1.1927269E-1,5.4370095E-3,1.0741009E-1,1.0380024E-1,1.195802E-1,1.2473207E-1,1.149864E-1,9.478562E-2,1.1734747E-1,1.2026123E-1,1.0060748E-1,-3.558774E-2,1.0467799E-1,9.164874E-2,-9.217136E-2,6.7673296E-2,1.1400314E-1,1.4948781E-2,1.1812227E-1,9.568856E-2,1.1797209E-1,1.1860397E-1,8.778558E-2,9.678124E-3,1.15799665E-1,1.1694684E-1,7.8092515E-2,1.1687715E-1,1.3732706E-1,1.1618244E-1,1.0229967E-1,1.1298046E-1,1.1659344E-1,1.1536117E-1,1.167992E-1,1.16513126E-1,1.19820856E-1],"categories":[],"categories_nodes":[],"categories_segments":[],"categories_sizes":[],"default_left":[0,0,0,0,0,0,0,0,1,0,0,0,0,0,0,0,0,0,0,0,0,0,0,1,1,0,0,0,0,0,0,0,0,0,0,0,0,0,0,0,0,1,1,0,0,0,0,1,0,1,0,0,0,0,0,0,0,0,0,0,0,0,0,0,0,0,0,0,0,0,0,0,0,0,0,0,0,0,0,0,0,0,0,0,0,0,0,0,0,0,0,0,0,0,0,0,0,0,0,0,0,0,0,0,0,0,0,0,0,0,0,0,0,0,0,0,0,0,0,0,0,0,0,0,0,0,0],"id":13,"left_children":[1,3,5,7,9,11,13,15,17,19,21,23,25,27,29,31,33,35,37,39,41,43,45,47,49,51,53,55,57,59,61,63,65,67,69,71,73,75,77,79,81,83,85,87,89,91,93,95,97,99,101,103,105,107,109,111,113,115,117,119,121,123,125,-1,-1,-1,-1,-1,-1,-1,-1,-1,-1,-1,-1,-1,-1,-1,-1,-1,-1,-1,-1,-1,-1,-1,-1,-1,-1,-1,-1,-1,-1,-1,-1,-1,-1,-1,-1,-1,-1,-1,-1,-1,-1,-1,-1,-1,-1,-1,-1,-1,-1,-1,-1,-1,-1,-1,-1,-1,-1,-1,-1,-1,-1,-1,-1],"loss_changes":[1.7906526E6,9.469904E5,1.79364E5,3.5767594E4,7.606286E5,1.9829184E5,1.1035125E4,5.0240312E3,3.2905113E4,4.4043888E5,7.847684E4,6.3518438E3,1.7037916E5,7.3318047E3,1.317875E3,3.6640625E2,9.728031E3,4.513232E4,2.3870938E3,4.250985E5,9.212266E3,1.1517994E5,8.8124375E3,5.4221875E2,8.1522734E3,2.5154769E5,9.431297E3,9.58418E3,3.336797E2,5.23875E2,7.35E1,8.21875E1,7.9796875E2,3.6662797E4,7.313047E2,9.3698047E2,6.607428E4,1.2916809E4,1.640043E3,1.6639912E5,2.2646262E5,4.675799E3,1.598125E2,3.6242188E3,1.2752685E5,2.4644906E4,5.298594E2,4.596875E1,9.052422E2,3.23625E2,2.1831264E4,2.4312662E5,7.5065156E3,2.3434398E4,1.0675938E3,3.7764844E2,1.2831002E4,5.4419727E2,6.564844E1,3.4970312E2,7.03125E0,1.146875E1,1.028125E2,0E0,0E0,0E0,0E0,0E0,0E0,0E0,0E0,0E0,0E0,0E0,0E0,0E0,0E0,0E0,0E0,0E0,0E0,0E0,0E0,0E0,0E0,0E0,0E0,0E0,0E0,0E0,0E0,0E0,0E0,0E0,0E0,0E0,0E0,0E0,0E0,0E0,0E0,0E0,0E0,0E0,0E0,0E0,0E0,0E0,0E0,0E0,0E0,0E0,0E0,0E0,0E0,0E0,0E0,0E0,0E0,0E0,0E0,0E0,0E0,0E0,0E0,0E0,0E0],"parents":[2147483647,0,0,1,1,2,2,3,3,4,4,5,5,6,6,7,7,8,8,9,9,10,10,11,11,12,12,13,13,14,14,15,15,16,16,17,17,18,18,19,19,20,20,21,21,22,22,23,23,24,24,25,25,26,26,27,27,28,28,29,29,30,30,31,31,32,32,33,33,34,34,35,35,36,36,37,37,38,38,39,39,40,40,41,41,42,42,43,43,44,44,45,45,46,46,47,47,48,48,49,49,50,50,51,51,52,52,53,53,54,54,55,55,56,56,57,57,58,58,59,59,60,60,61,61,62,62],"right_children":[2,4,6,8,10,12,14,16,18,20,22,24,26,28,30,32,34,36,38,40,42,44,46,48,50,52,54,56,58,60,62,64,66,68,70,72,74,76,78,80,82,84,86,88,90,92,94,96,98,100,102,104,106,108,110,112,114,116,118,120,122,124,126,-1,-1,-1,-1,-1,-1,-1,-1,-1,-1,-1,-1,-1,-1,-1,-1,-1,-1,-1,-1,-1,-1,-1,-1,-1,-1,-1,-1,-1,-1,-1,-1,-1,-1,-1,-1,-1,-1,-1,-1,-1,-1,-1,-1,-1,-1,-1,-1,-1,-1,-1,-1,-1,-1,-1,-1,-1,-1,-1,-1,-1,-1,-1,-1],"split_conditions":[5.3365E1,-4E-3,6.7244E1,-6E-3,3E-3,-4E-3,6.918E1,2.921E1,4E-2,1.34E-1,7E-3,-6E-3,8.5E-2,6.6E-2,7.1652E1,-8E-3,9.1E-2,5.765E0,7.427E0,1E0,1.49E-1,-4.9E-2,1E-2,6.052E0,5.876E0,4E-3,1.22E-1,-9.2E-2,9.1E-2,7E-2,6.15E0,-1.2E-2,3.7463E1,-1.1E-2,-7E-3,5.614E0,1.22E-1,8.5E-2,3.4E-2,-1.3E-1,1E-3,6.888E0,2.835E1,4.1177E1,8.5E-2,4.0447E1,1.1E-2,2.474E1,8.5E-2,5.796E0,8.5E-2,-1.06E-1,7E-3,0E0,1.34E-1,-1.06E-1,3E-3,-4E-3,0E0,-1.06E-1,8E-2,-4E-3,-7E-2,1.1836652E-1,1.1421376E-1,1.1435864E-1,9.133897E-2,1.151932E-1,-4.681721E-2,1.1705281E-1,9.555012E-2,1.21172965E-1,7.43139E-2,-1.0527426E-1,9.856713E-2,-2.5485843E-2,1.0588695E-1,2.3238732E-2,1.2730019E-1,2.2303179E-1,-9.502017E-2,-5.5858805E-3,-6.0459353E-2,4.124348E-2,1.09096624E-1,1.24376416E-1,1.1548143E-1,8.28363E-2,1.3121583E-1,-5.3783096E-2,1.1927269E-1,5.4370095E-3,1.0741009E-1,1.0380024E-1,1.195802E-1,1.2473207E-1,1.149864E-1,9.478562E-2,1.1734747E-1,1.2026123E-1,1.0060748E-1,-3.558774E-2,1.0467799E-1,9.164874E-2,-9.217136E-2,6.7673296E-2,1.1400314E-1,1.4948781E-2,1.1812227E-1,9.568856E-2,1.1797209E-1,1.1860397E-1,8.778558E-2,9.678124E-3,1.15799665E-1,1.1694684E-1,7.8092515E-2,1.1687715E-1,1.3732706E-1,1.1618244E-1,1.0229967E-1,1.1298046E-1,1.1659344E-1,1.1536117E-1,1.167992E-1,1.16513126E-1,1.19820856E-1],"split_indices":[2,7,2,7,7,7,2,5,11,8,7,7,8,8,2,7,8,3,3,0,8,8,7,3,3,7,8,8,8,8,3,7,2,7,7,3,8,8,8,8,7,3,5,2,8,2,7,5,8,3,8,8,7,7,8,8,7,7,0,8,8,7,8,0,0,0,0,0,0,0,0,0,0,0,0,0,0,0,0,0,0,0,0,0,0,0,0,0,0,0,0,0,0,0,0,0,0,0,0,0,0,0,0,0,0,0,0,0,0,0,0,0,0,0,0,0,0,0,0,0,0,0,0,0,0,0,0],"split_type":[0,0,0,0,0,0,0,0,0,0,0,0,0,0,0,0,0,0,0,0,0,0,0,0,0,0,0,0,0,0,0,0,0,0,0,0,0,0,0,0,0,0,0,0,0,0,0,0,0,0,0,0,0,0,0,0,0,0,0,0,0,0,0,0,0,0,0,0,0,0,0,0,0,0,0,0,0,0,0,0,0,0,0,0,0,0,0,0,0,0,0,0,0,0,0,0,0,0,0,0,0,0,0,0,0,0,0,0,0,0,0,0,0,0,0,0,0,0,0,0,0,0,0,0,0,0,0],"sum_hessian":[8.628687E6,6.4474195E6,2.1812675E6,6.258884E5,5.821531E6,1.2218471E6,9.594205E5,4.358664E5,1.9002198E5,5.2020555E6,6.194758E5,4.3780744E5,7.840397E5,1.3688752E5,8.2253294E5,2.7927194E5,1.5659448E5,1.002049E5,8.9817086E4,5.02558E6,1.7647561E5,3.1881003E5,3.0066575E5,3.4563197E5,9.217548E4,5.607891E5,2.2325056E5,8.2448086E4,5.4439434E4,1.9047664E5,6.320563E5,1.9881756E5,8.045437E4,6.3088785E4,9.35057E4,3.165643E4,6.854846E4,6.0443707E4,2.9373377E4,2.017198E6,3.0083818E6,4.4885684E4,1.3158992E5,9.768231E4,2.2112773E5,1.2906867E5,1.7159706E5,2.7414384E5,7.148813E4,4.343183E4,4.874365E4,4.000896E5,1.6069953E5,8.888901E4,1.3436156E5,2.7950154E4,5.449793E4,1.4696023E4,3.974341E4,1.3553502E5,5.4941613E4,2.5024602E5,3.818103E5,1.1515859E5,8.365896E4,6.0350426E4,2.0103941E4,4.2213945E4,2.0874844E4,7.329291E4,2.0212799E4,2.6565305E4,5.091126E3,4.3478074E4,2.507039E4,8.750767E3,5.169294E4,1.60241E3,2.7770967E4,1.6585037E4,2.0006129E6,1.5014858E6,1.5068961E6,2.9357555E4,1.552813E4,2.5195656E4,1.06394266E5,1.9305297E4,7.8377016E4,1.6355792E5,5.756981E4,3.1282354E4,9.778632E4,2.4965701E4,1.4663136E5,5.0673203E3,2.690765E5,3.793561E4,3.3552527E4,3.2022729E4,1.1409103E4,1.7082543E4,3.1661104E4,9.406999E4,3.060196E5,5.144461E4,1.09254914E5,4.0151516E4,4.873749E4,2.6918465E4,1.074431E5,2.3129879E4,4.8202744E3,3.827678E4,1.6221148E4,8.311068E3,6.3849546E3,3.807105E4,1.6723578E3,2.1663834E4,1.1387119E5,7.4110337E3,4.753058E4,1.3728038E5,1.1296564E5,1.8282328E5,1.9898703E5],"tree_param":{"num_deleted":"0","num_feature":"13","num_nodes":"127","size_leaf_vector":"1"}},{"base_weights":[1.6026103E-3,-1.8140902E-1,1.1827757E0,3.5503197E-1,-1.0052975E0,1.1774695E0,1.19540714E-1,9.7517985E-1,1.5380315E-1,8.1545717E-1,-1.1264211E0,1.2080603E-1,1.1737939E-1,1.0836365E0,6.57798E-1,-1.0803721E-1,6.9024754E-1,1.0388669E0,-1.7294657E-1,-1.1389277E0,1.4449085E0,1.1258991E0,9.584452E-1,1.0476434E0,3.3017105E-1,-2.8902718E-1,9.392846E-1,4.4767115E-1,1.0382909E0,8.8737804E-1,1.2670412E0,1.1877977E0,-1.32588E0,2.8165677E0,-1.1463387E0,1.6381913E0,1.2862701E0,1.1473842E-1,1.0830033E-1,1.1242687E-1,8.085734E-2,1.123971E-1,8.407542E-2,-5.8462013E-2,9.418652E-2,6.6793285E-2,-5.1674988E-2,3.688396E-2,1.0546862E-1,1.1127611E-1,1.19599495E-2,8.695062E-2,1.1494755E-1,1.1068805E-1,-6.792069E-2,1.1556276E-1,1.58576E-1,1.2398849E-1,-5.619954E-2,-1.3652793E-1,9.589855E-2,3.2612917E-1,2.6667154E-1,-1.1475902E-1,4.11831E-2,1.4131974E-1,2.1215533E-1,1.4307378E-1,1.2308794E-1],"categories":[],"categories_nodes":[],"categories_segments":[],"categories_sizes":[],"default_left":[0,0,0,0,0,0,0,0,0,0,0,0,0,0,1,0,0,0,0,0,0,0,1,1,0,0,0,0,0,0,0,0,0,0,0,1,0,0,0,0,0,0,0,0,0,0,0,0,0,0,0,0,0,0,0,0,0,0,0,0,0,0,0,0,0,0,0,0,0],"id":14,"left_children":[1,3,5,7,9,11,-1,13,15,17,19,-1,-1,21,23,25,27,29,31,33,35,37,39,41,43,45,47,49,51,53,55,57,59,61,63,65,67,-1,-1,-1,-1,-1,-1,-1,-1,-1,-1,-1,-1,-1,-1,-1,-1,-1,-1,-1,-1,-1,-1,-1,-1,-1,-1,-1,-1,-1,-1,-1,-1],"loss_changes":[1.7889432E6,3.166906E6,7.2875E1,5.415697E5,6.231655E5,8.65E1,0E0,3.6597125E4,4.6023916E5,3.8919656E4,8.520325E4,0E0,0E0,4.191625E3,3.4585977E4,4.173728E5,9.073616E4,4.9679688E3,5.0980312E4,7.72925E4,3.9111914E2,5.4475E2,4.9695156E3,1.9516875E3,8.233474E4,4.0913E5,2.1357625E4,1.3818988E5,8.282594E3,2.9711125E4,2.0349219E3,1.359123E3,1.584875E3,3.1991797E2,5.132E3,6.253086E2,5.463965E1,0E0,0E0,0E0,0E0,0E0,0E0,0E0,0E0,0E0,0E0,0E0,0E0,0E0,0E0,0E0,0E0,0E0,0E0,0E0,0E0,0E0,0E0,0E0,0E0,0E0,0E0,0E0,0E0,0E0,0E0,0E0,0E0],"parents":[2147483647,0,0,1,1,2,2,3,3,4,4,5,5,7,7,8,8,9,9,10,10,13,13,14,14,15,15,16,16,17,17,18,18,19,19,20,20,21,21,22,22,23,23,24,24,25,25,26,26,27,27,28,28,29,29,30,30,31,31,32,32,33,33,34,34,35,35,36,36],"right_children":[2,4,6,8,10,12,-1,14,16,18,20,-1,-1,22,24,26,28,30,32,34,36,38,40,42,44,46,48,50,52,54,56,58,60,62,64,66,68,-1,-1,-1,-1,-1,-1,-1,-1,-1,-1,-1,-1,-1,-1,-1,-1,-1,-1,-1,-1,-1,-1,-1,-1,-1,-1,-1,-1,-1,-1,-1,-1],"split_conditions":[8.601E0,7.185E0,1E-3,-4E-3,-2E-3,1E0,1.19540714E-1,-6E-3,2E-3,3.292E1,8E-2,1.2080603E-1,1.1737939E-1,-8E-3,5.986E0,1.22E-1,7E-3,7E-2,-3.1E-2,-9.2E-2,1.13E-1,-1.1E-2,5.995E0,5.839E0,1.05E-1,-7E-2,1.34E-1,-5.2E-2,1E-2,-4E-3,-4E-3,-4E-3,4.5E-2,1E0,4E-3,7.35E0,1.22E-1,1.1473842E-1,1.0830033E-1,1.1242687E-1,8.085734E-2,1.123971E-1,8.407542E-2,-5.8462013E-2,9.418652E-2,6.6793285E-2,-5.1674988E-2,3.688396E-2,1.0546862E-1,1.1127611E-1,1.19599495E-2,8.695062E-2,1.1494755E-1,1.1068805E-1,-6.792069E-2,1.1556276E-1,1.58576E-1,1.2398849E-1,-5.619954E-2,-1.3652793E-1,9.589855E-2,3.2612917E-1,2.6667154E-1,-1.1475902E-1,4.11831E-2,1.4131974E-1,2.1215533E-1,1.4307378E-1,1.2308794E-1],"split_indices":[1,1,7,7,7,0,0,7,7,5,8,0,0,7,3,8,7,8,8,8,8,7,3,3,8,8,8,8,7,7,7,7,8,0,7,3,8,0,0,0,0,0,0,0,0,0,0,0,0,0,0,0,0,0,0,0,0,0,0,0,0,0,0,0,0,0,0,0,0],"split_type":[0,0,0,0,0,0,0,0,0,0,0,0,0,0,0,0,0,0,0,0,0,0,0,0,0,0,0,0,0,0,0,0,0,0,0,0,0,0,0,0,0,0,0,0,0,0,0,0,0,0,0,0,0,0,0,0,0,0,0,0,0,0,0,0,0,0,0,0,0],"sum_hessian":[8.2756905E6,7.165469E6,1.110221E6,4.339793E6,2.8256762E6,7.8186706E5,3.2835397E5,1.0632036E6,3.2765895E6,1.762496E5,2.6494268E6,8.383055E4,6.980365E5,7.9241475E5,2.707888E5,2.2018565E6,1.074733E6,1.437562E5,3.2493385E4,2.6366032E6,1.2823499E4,5.924165E5,1.999982E5,1.2365213E5,1.4713669E5,1.8774166E6,3.2443975E5,6.333254E5,4.4140766E5,8.639919E4,5.735701E4,1.4903532E4,1.7589854E4,4.92994E3,2.6316732E6,5.776348E3,7.047151E3,3.9469938E5,1.9771716E5,9.494321E4,1.05055E5,9.0324375E4,3.332776E4,5.8960727E4,8.817596E4,3.6088138E5,1.5165352E6,5.4591406E4,2.6984834E5,2.0920594E5,4.2411944E5,1.7530044E5,2.6610722E5,7.578136E4,1.0617835E4,4.250373E4,1.4853284E4,1.4472996E4,4.30536E2,1.7292078E4,2.9777423E2,1.237271E3,3.692669E3,2.6295615E6,2.1117358E3,3.9442927E3,1.8320554E3,1.9462355E3,5.1009155E3],"tree_param":{"num_deleted":"0","num_feature":"13","num_nodes":"69","size_leaf_vector":"1"}},{"base_weights":[1.4990426E-3,-1.7349394E-1,1.1623842E0,3.375332E-1,-9.8198664E-1,1.157758E0,1.17338814E-1,5.830629E-2,9.218644E-1,7.8830457E-1,-1.106262E0,1.1843848E-1,1.1545455E-1,9.4223785E-1,-1.4896517E-1,6.7311096E-1,1.1269317E0,1.0611619E0,5.4004498E-2,1.1203082E0,-1.1291595E0,1.0650182E0,6.040414E-1,-4.5334104E-1,7.042897E-1,9.482349E-1,2.6120687E-1,1.0463269E0,1.1516049E0,7.829668E-1,1.1609135E0,6.0464823E-1,-7.062033E-1,-5.107296E-1,2.941415E0,-1.139242E0,1.2292717E0,1.1337375E-1,9.886157E-2,2.9758558E-2,1.06490664E-1,-7.0985585E-2,8.6820304E-2,4.2253334E-2,1.0358968E-1,1.106988E-1,7.661953E-2,9.987264E-2,-8.015306E-3,1.0082956E-1,1.1326023E-1,1.1239568E-1,1.159445E-1,1.03690304E-1,-1.05453886E-1,1.0631932E-1,1.2392002E-1,1.2116919E-1,1.8773308E-2,-1.075827E-1,1.0891147E-1,2.2504687E-1,-1.0072482E-1,3.5900307E-1,1.3400263E-1,2.3342577E-1,-1.1397111E-1,1.383483E-1,-4.571223E-2],"categories":[],"categories_nodes":[],"categories_segments":[],"categories_sizes":[],"default_left":[0,0,0,0,0,0,0,0,0,0,0,0,0,0,0,0,0,0,0,0,0,0,0,0,0,0,0,0,0,0,0,0,0,0,0,0,0,0,0,0,0,0,0,0,0,0,0,0,0,0,0,0,0,0,0,0,0,0,0,0,0,0,0,0,0,0,0,0,0],"id":15,"left_children":[1,3,5,7,9,11,-1,13,15,17,19,-1,-1,21,23,25,27,29,31,33,35,37,39,41,43,45,47,49,51,53,55,57,59,61,63,65,67,-1,-1,-1,-1,-1,-1,-1,-1,-1,-1,-1,-1,-1,-1,-1,-1,-1,-1,-1,-1,-1,-1,-1,-1,-1,-1,-1,-1,-1,-1,-1,-1],"loss_changes":[1.5841672E6,2.7998435E6,5.0625E1,6.774701E5,5.773935E5,6.025E1,0E0,5.1475403E5,6.848575E4,3.4492656E4,1.25027E5,0E0,0E0,2.2159562E4,5.9107694E5,6.875056E4,1.4624375E3,3.4821719E3,1.9524451E4,7.4148164E4,5.772225E4,2.0545E3,2.007555E4,5.686674E5,5.590997E4,1.0510594E4,6.1164086E4,5.6478125E2,1.208125E2,1.5459957E4,7.054531E2,6.8455264E3,1.3002718E4,1.8057361E4,1.2245758E4,3.93925E3,2.687996E3,0E0,0E0,0E0,0E0,0E0,0E0,0E0,0E0,0E0,0E0,0E0,0E0,0E0,0E0,0E0,0E0,0E0,0E0,0E0,0E0,0E0,0E0,0E0,0E0,0E0,0E0,0E0,0E0,0E0,0E0,0E0,0E0],"parents":[2147483647,0,0,1,1,2,2,3,3,4,4,5,5,7,7,8,8,9,9,10,10,13,13,14,14,15,15,16,16,17,17,18,18,19,19,20,20,21,21,22,22,23,23,24,24,25,25,26,26,27,27,28,28,29,29,30,30,31,31,32,32,33,33,34,34,35,35,36,36],"right_children":[2,4,6,8,10,12,-1,14,16,18,20,-1,-1,22,24,26,28,30,32,34,36,38,40,42,44,46,48,50,52,54,56,58,60,62,64,66,68,-1,-1,-1,-1,-1,-1,-1,-1,-1,-1,-1,-1,-1,-1,-1,-1,-1,-1,-1,-1,-1,-1,-1,-1,-1,-1,-1,-1,-1,-1,-1,-1],"split_conditions":[8.601E0,7.167E0,1E-3,6.0944E1,-2E-3,1E0,1.17338814E-1,-5E-3,6.918E1,2.854E1,2.1522E1,1.1843848E-1,1.1545455E-1,-7E-3,4E-3,0E0,7.1652E1,4.5E-2,-5E-3,1E0,7.4E-2,-1.1E-2,1.13E-1,1.22E-1,8E-3,-4E-3,-1.06E-1,6.2E-2,-4E-3,-4E-3,7E-2,-3E-2,7E-2,1.7E-1,3E-3,-1.06E-1,1E0,1.1337375E-1,9.886157E-2,2.9758558E-2,1.06490664E-1,-7.0985585E-2,8.6820304E-2,4.2253334E-2,1.0358968E-1,1.106988E-1,7.661953E-2,9.987264E-2,-8.015306E-3,1.0082956E-1,1.1326023E-1,1.1239568E-1,1.159445E-1,1.03690304E-1,-1.05453886E-1,1.0631932E-1,1.2392002E-1,1.2116919E-1,1.8773308E-2,-1.075827E-1,1.0891147E-1,2.2504687E-1,-1.0072482E-1,3.5900307E-1,1.3400263E-1,2.3342577E-1,-1.1397111E-1,1.383483E-1,-4.571223E-2],"split_indices":[1,1,7,2,7,0,0,7,2,2,2,0,0,7,7,0,2,8,7,0,8,7,8,8,7,7,8,8,7,7,8,8,8,11,8,8,0,0,0,0,0,0,0,0,0,0,0,0,0,0,0,0,0,0,0,0,0,0,0,0,0,0,0,0,0,0,0,0,0],"split_type":[0,0,0,0,0,0,0,0,0,0,0,0,0,0,0,0,0,0,0,0,0,0,0,0,0,0,0,0,0,0,0,0,0,0,0,0,0,0,0,0,0,0,0,0,0,0,0,0,0,0,0,0,0,0,0,0,0,0,0,0,0,0,0,0,0,0,0,0,0],"sum_hessian":[7.798141E6,6.776626E6,1.02151456E6,4.1521568E6,2.6244692E6,7.192441E5,3.0227044E5,2.8095798E6,1.342577E6,1.7215347E5,2.452316E6,7.739386E4,6.4185025E5,5.3367244E5,2.2759075E6,6.0667025E5,7.359068E5,1.2551364E5,4.6639836E4,2.4961732E4,2.4273542E6,3.9152812E5,1.421443E5,1.6775034E6,5.9840406E5,3.637252E5,2.4294503E5,1.7247886E5,5.6342794E5,3.3129207E4,9.238443E4,2.704816E4,1.9591676E4,1.3168421E4,1.1793311E4,2.4170215E6,1.0332587E4,2.0612123E5,1.854069E5,8.537511E4,5.6769184E4,1.4048241E6,2.7267922E5,3.2352072E5,2.7488334E5,1.9428669E5,1.6943852E5,7.686775E4,1.6607728E5,1.1971822E5,5.276065E4,1.2450522E5,4.3892275E5,2.9107146E4,4.0220603E3,4.109847E4,5.128596E4,1.1012155E4,1.6036006E4,1.6247092E4,3.344584E3,2.0065009E3,1.116192E4,8.392734E3,3.400577E3,3.2557816E2,2.416696E6,9.467057E3,8.655303E2],"tree_param":{"num_deleted":"0","num_feature":"13","num_nodes":"69","size_leaf_vector":"1"}},{"base_weights":[1.507524E-3,-1.6712672E-1,1.1445664E0,3.1709033E-1,-9.71846E-1,1.140511E0,1.15419164E-1,5.162784E-2,8.8996255E-1,7.574558E-1,-1.091465E0,1.16378486E-1,1.1376939E-1,1.019026E0,-1.2354648E-1,6.3586974E-1,1.1079152E0,9.741022E-1,-2.0180695E-1,9.898471E-1,-1.1150509E0,1.1484187E0,5.086604E-1,-3.2402667E-1,7.3968613E-1,1.1186439E0,4.0950644E-1,1.0199634E0,1.1352065E0,1.0902891E0,5.43871E-1,1.1669688E0,-1.0460674E0,-5.0352585E-1,2.4200845E0,-1.1219841E0,9.223454E-1,1.2120718E-1,9.1370136E-2,-2.2978134E-2,1.0104755E-1,9.2714466E-2,-5.3905737E-2,4.9140703E-2,1.0567279E-1,1.1759404E-1,9.345254E-2,-9.3233696E-4,7.705571E-2,9.708917E-2,1.08786836E-1,1.11076854E-1,1.1420971E-1,1.2251746E-1,1.02288485E-1,1.0472273E-1,-1.4912607E-2,1.1764123E-1,-5.7127167E-2,-3.312571E-2,-1.1349332E-1,-9.848478E-2,2.0672455E-1,2.6817578E-1,1.8369012E-1,-1.12375595E-1,7.1163796E-2,1.14993E-1,-5.6785114E-2],"categories":[],"categories_nodes":[],"categories_segments":[],"categories_sizes":[],"default_left":[0,0,0,0,0,0,0,0,0,0,0,0,0,0,0,0,0,0,0,0,1,0,1,0,0,0,1,1,0,0,0,0,0,1,0,0,0,0,0,0,0,0,0,0,0,0,0,0,0,0,0,0,0,0,0,0,0,0,0,0,0,0,0,0,0,0,0,0,0],"id":16,"left_children":[1,3,5,7,9,11,-1,13,15,17,19,-1,-1,21,23,25,27,29,31,33,35,37,39,41,43,45,47,49,51,53,55,57,59,61,63,65,67,-1,-1,-1,-1,-1,-1,-1,-1,-1,-1,-1,-1,-1,-1,-1,-1,-1,-1,-1,-1,-1,-1,-1,-1,-1,-1,-1,-1,-1,-1,-1,-1],"loss_changes":[1.4073738E6,2.479225E6,3.525E1,6.0409525E5,4.9443825E5,4.20625E1,0E0,4.6000312E5,6.965944E4,3.2137742E4,1.0974525E5,0E0,0E0,2.7482312E4,3.9774638E5,6.346836E4,1.6240625E3,6.3053047E3,3.2925977E4,5.350698E4,3.122625E4,4.9591562E3,3.1191607E4,5.0179688E5,3.4096E4,1.954625E3,5.9790375E4,5.332656E2,8.56875E1,9.017969E2,9.357637E3,1.7910059E2,1.1190527E3,1.5166991E4,1.9478047E3,7.15875E3,2.5433682E3,0E0,0E0,0E0,0E0,0E0,0E0,0E0,0E0,0E0,0E0,0E0,0E0,0E0,0E0,0E0,0E0,0E0,0E0,0E0,0E0,0E0,0E0,0E0,0E0,0E0,0E0,0E0,0E0,0E0,0E0,0E0,0E0],"parents":[2147483647,0,0,1,1,2,2,3,3,4,4,5,5,7,7,8,8,9,9,10,10,13,13,14,14,15,15,16,16,17,17,18,18,19,19,20,20,21,21,22,22,23,23,24,24,25,25,26,26,27,27,28,28,29,29,30,30,31,31,32,32,33,33,34,34,35,35,36,36],"right_children":[2,4,6,8,10,12,-1,14,16,18,20,-1,-1,22,24,26,28,30,32,34,36,38,40,42,44,46,48,50,52,54,56,58,60,62,64,66,68,-1,-1,-1,-1,-1,-1,-1,-1,-1,-1,-1,-1,-1,-1,-1,-1,-1,-1,-1,-1,-1,-1,-1,-1,-1,-1,-1,-1,-1,-1,-1,-1],"split_conditions":[8.601E0,7.185E0,1E-3,6.0944E1,-2E-3,1E0,1.15419164E-1,5.724E0,6.918E1,3.292E1,2.1522E1,1.16378486E-1,1.1376939E-1,5.616E0,5E-3,5.754E0,7.1652E1,2.7995E1,-2.5E-2,1E0,5E-2,5.461E0,2.498E1,-6E-3,9E-3,5.683E0,2.505E1,-4E-2,-4E-3,2.5159E1,-5E-3,1E0,-1E-2,2.17E1,8.115E0,5E-3,7.587E0,1.2120718E-1,9.1370136E-2,-2.2978134E-2,1.0104755E-1,9.2714466E-2,-5.3905737E-2,4.9140703E-2,1.0567279E-1,1.1759404E-1,9.345254E-2,-9.3233696E-4,7.705571E-2,9.708917E-2,1.08786836E-1,1.11076854E-1,1.1420971E-1,1.2251746E-1,1.02288485E-1,1.0472273E-1,-1.4912607E-2,1.1764123E-1,-5.7127167E-2,-3.312571E-2,-1.1349332E-1,-9.848478E-2,2.0672455E-1,2.6817578E-1,1.8369012E-1,-1.12375595E-1,7.1163796E-2,1.14993E-1,-5.6785114E-2],"split_indices":[1,1,7,2,7,0,0,1,2,5,2,0,0,1,7,1,2,2,7,0,11,1,5,7,7,1,6,12,7,2,7,0,7,6,1,7,3,0,0,0,0,0,0,0,0,0,0,0,0,0,0,0,0,0,0,0,0,0,0,0,0,0,0,0,0,0,0,0,0],"split_type":[0,0,0,0,0,0,0,0,0,0,0,0,0,0,0,0,0,0,0,0,0,0,0,0,0,0,0,0,0,0,0,0,0,0,0,0,0,0,0,0,0,0,0,0,0,0,0,0,0,0,0,0,0,0,0,0,0,0,0,0,0,0,0,0,0,0,0,0,0],"sum_hessian":[7.301212E6,6.3625525E6,9.3865956E5,3.9723212E6,2.3902312E6,6.604888E5,2.7817078E5,2.7144685E6,1.2578528E6,1.546396E5,2.2355915E6,7.127178E4,5.89217E5,4.1616994E5,2.2982985E6,5.807771E5,6.770756E5,1.2614919E5,2.8490404E4,2.5049945E4,2.2105418E6,3.319976E5,8.417234E4,1.8651339E6,4.3316466E5,1.8538822E5,3.953889E5,1.6035056E5,5.167251E5,9.932442E4,2.682477E4,1.0868777E4,1.7621627E4,1.2254812E4,1.2795133E4,2.2030452E6,7.4964126E3,2.6116733E5,7.083026E4,3.405684E4,5.0115504E4,2.7353688E5,1.591597E6,2.4292767E5,1.90237E5,1.4138475E5,4.4003484E4,1.8304825E5,2.1234064E5,9.3092445E4,6.725812E4,1.1368785E5,4.0303725E5,3.3089793E4,6.6234625E4,1.5538163E4,1.1286606E4,1.081037E4,5.840783E1,1.9490203E3,1.5672607E4,1.032272E4,1.9320912E3,8.829675E3,3.965458E3,2.2009188E6,2.1264429E3,6.5034297E3,9.9298315E2],"tree_param":{"num_deleted":"0","num_feature":"13","num_nodes":"69","size_leaf_vector":"1"}},{"base_weights":[1.5546689E-3,-1.6006008E-1,1.1289246E0,2.9951328E-1,-9.576254E-1,1.1253566E0,1.1373824E-1,3.859895E-2,8.359722E-1,7.272806E-1,-1.0772196E0,1.1457896E-1,1.1228863E-1,-1.8313318E-1,7.96019E-1,5.8240837E-1,1.0905424E0,9.3503207E-1,-1.9118111E-1,9.034163E-1,-1.1012958E0,1.0207723E0,-4.0708494E-1,4.7905478E-1,1.0447441E0,2.9211986E-1,1.0109576E0,9.9430436E-1,1.1207632E0,1.05893E0,5.276384E-1,1.1183085E0,-1.2592821E0,-4.847678E-1,2.1232362E0,-1.1102046E0,1.133755E0,1.1907665E-1,6.1785974E-2,-7.486025E-2,5.1873732E-2,1.0637959E-1,2.1396473E-2,8.548072E-2,1.1268157E-1,1.0309998E-1,-4.016509E-3,8.3989576E-2,1.1104839E-1,9.4838776E-2,1.10147774E-1,1.0991184E-1,1.1268641E-1,9.315692E-2,1.1788857E-1,1.0214509E-1,-1.1020548E-2,1.1673998E-1,-5.6126576E-2,-1.3004874E-1,9.173928E-2,-9.5625006E-2,1.916875E-1,2.4188614E-1,1.1106186E-1,-1.111889E-1,1.1648773E-2,1.3012277E-1,-4.0323045E-2],"categories":[],"categories_nodes":[],"categories_segments":[],"categories_sizes":[],"default_left":[0,0,0,0,0,0,0,0,0,0,0,0,0,0,0,0,0,0,0,0,0,0,0,0,0,0,0,0,0,0,0,0,0,1,0,0,0,0,0,0,0,0,0,0,0,0,0,0,0,0,0,0,0,0,0,0,0,0,0,0,0,0,0,0,0,0,0,0,0],"id":17,"left_children":[1,3,5,7,9,11,-1,13,15,17,19,-1,-1,21,23,25,27,29,31,33,35,37,39,41,43,45,47,49,51,53,55,57,59,61,63,65,67,-1,-1,-1,-1,-1,-1,-1,-1,-1,-1,-1,-1,-1,-1,-1,-1,-1,-1,-1,-1,-1,-1,-1,-1,-1,-1,-1,-1,-1,-1,-1,-1],"loss_changes":[1.2500346E6,2.199452E6,2.475E1,5.328572E5,4.4202975E5,2.91875E1,0E0,4.3014722E5,8.0409E4,2.774139E4,9.76745E4,0E0,0E0,5.341774E5,4.5725125E4,7.763769E4,1.8066875E3,5.9841094E3,3.7513523E4,4.1656457E4,4.0295E4,2.1283281E4,5.2818625E5,3.9530234E4,5.065E3,9.134815E4,4.289797E3,7.3003125E2,6.125E1,1.387875E3,8.709758E3,9.9412305E2,1.3260898E3,1.3031124E4,3.917086E3,4.16525E3,2.0686504E3,0E0,0E0,0E0,0E0,0E0,0E0,0E0,0E0,0E0,0E0,0E0,0E0,0E0,0E0,0E0,0E0,0E0,0E0,0E0,0E0,0E0,0E0,0E0,0E0,0E0,0E0,0E0,0E0,0E0,0E0,0E0,0E0],"parents":[2147483647,0,0,1,1,2,2,3,3,4,4,5,5,7,7,8,8,9,9,10,10,13,13,14,14,15,15,16,16,17,17,18,18,19,19,20,20,21,21,22,22,23,23,24,24,25,25,26,26,27,27,28,28,29,29,30,30,31,31,32,32,33,33,34,34,35,35,36,36],"right_children":[2,4,6,8,10,12,-1,14,16,18,20,-1,-1,22,24,26,28,30,32,34,36,38,40,42,44,46,48,50,52,54,56,58,60,62,64,66,68,-1,-1,-1,-1,-1,-1,-1,-1,-1,-1,-1,-1,-1,-1,-1,-1,-1,-1,-1,-1,-1,-1,-1,-1,-1,-1,-1,-1,-1,-1,-1,-1],"split_conditions":[8.601E0,7.185E0,1E-3,5.9969E1,-2E-3,1E0,1.1373824E-1,9.8E-2,6.918E1,3.292E1,2.1522E1,1.1457896E-1,1.1228863E-1,